#include "silero_vad_weights.h"

static const float silero_vad_conv1_weight[] = {
  0.0216035321f, 0.0199142285f, -0.0184361804f, 0.00798723102f, 0.0254521277f, 0.0376031063f, -0.0331804641f, -0.0467575043f,
  0.00911542494f, -0.000635366305f, -0.00234902278f, 0.0388111323f, -0.00145908748f, 0.0286715478f, 0.0413604192f, -0.0207758322f,
  -0.01657594f, -0.00593925687f, 0.0160643514f, 0.0575742088f, 0.0169951618f, -0.0219134316f, 0.0231057014f, 0.0122992601f,
  -0.000419460295f, 0.0107370364f, 0.005463426f, -0.0428600423f, -0.00782913342f, -0.0035393138f, -0.0346532017f, 0.00152904168f,
  -0.0221906081f, 0.00381900603f, 0.00247898186f, -0.00690719858f, 0.0243992843f, -0.0390037596f, 0.00885444321f, -0.0343159735f,
  -0.0131078819f, -0.0466147587f, -0.0177025497f, 0.0430870019f, -0.0297087841f, 0.0267725997f, 0.0366156995f, 0.0100715766f,
  -0.0490491576f, -0.00573188346f, 0.0374014825f, 0.0114932414f, 0.0221991912f, 0.0306108501f, -0.00636167685f, 0.0239495095f,
  0.0809849203f, -0.0602291562f, -0.0226492081f, 0.023022037f, -0.0357080474f, -0.0996895954f, 0.0236962698f, -0.0180129111f,
  -0.142964303f, 0.0302747469f, 0.0148563152f, -0.0794259384f, 0.0555609651f, 0.00773894973f, -0.072840102f, 0.0287051089f,
  -0.0445159562f, -0.108140357f, 0.0441418141f, -0.120089673f, -0.193354577f, -0.0138832312f, -0.102654919f, -0.111027591f,
  0.0806942806f, -0.0102910846f, -0.0683721006f, 0.108930901f, 0.0201027337f, -0.0629620403f, 0.113015205f, -0.106019415f,
  -0.0961221382f, 0.069462359f, -0.0940290466f, -0.152696997f, 0.0501373634f, -0.0491611585f, -0.11200393f, 0.0618496761f,
  -0.0572155379f, -0.0458933935f, 0.123980433f, 0.0137067977f, -0.10084822f, 0.124934182f, 0.0453795716f, -0.0728550255f,
  0.103387319f, 0.0418409109f, -0.0393869914f, 0.12969698f, 0.0521343127f, -0.0279601775f, 0.0962299332f, 0.0291736834f,
  0.00491820928f, 0.169912383f, -0.0018062382f, -0.0637969226f, 0.132254273f, 0.00899624731f, -0.0241225138f, 0.153280318f,
  0.0431627147f, -0.0518236645f, 0.144538015f, -0.0100597609f, -0.0830323771f, 0.149646714f, -0.046475634f, -0.096720621f,
  0.118956342f, -0.0595021546f, 0.0068203453f, 0.146688253f, -0.0519832671f, -0.0290456098f, 0.139808446f, -0.085491538f,
  -0.113939509f, 0.184973985f, -0.0857586935f, -0.116111182f, 0.250321299f, -0.00565310707f, -0.218223691f, 0.150905445f,
  -0.0259698778f, -0.221164986f, 0.139404878f, -0.0913780481f, -0.279768199f, 0.163313836f, -0.104358174f, -0.45270431f,
  0.0920870379f, -0.118054755f, -0.451614529f, 0.120310612f, -0.119408056f, -0.409122229f, 0.212756127f, -0.131711319f,
  -0.437739551f, 0.187776342f, -0.110113904f, -0.520335078f, 0.177706122f, -0.0680807903f, -0.466143072f, 0.308845997f,
  0.0735805109f, -0.409934133f, 0.267516971f, 0.059329357f, -0.43524611f, 0.264423609f, -0.0372108854f, -0.537052512f,
  0.17084074f, -0.00572288595f, -0.43814984f, 0.174432635f, 0.0256621391f, -0.38454327f, 0.196912199f, 0.101401031f,
  -0.383574605f, 0.239679232f, 0.0871134698f, -0.255612433f, 0.159263909f, 0.0127004562f, -0.158733338f, 0.114769071f,
  0.0654750317f, -0.0634092167f, 0.153480157f, 0.042795483f, -0.0197965354f, 0.184134856f, 0.040707428f, -0.114745937f,
  0.155148089f, 0.0464016572f, -0.153367743f, 0.0629198104f, 0.0589466244f, -0.111642428f, 0.10919109f, 0.0591571108f,
  -0.114483312f, 0.118285984f, 0.0345085114f, -0.146841869f, 0.150938287f, 0.0859332457f, -0.151972353f, 0.122033872f,
  0.088109687f, -0.0695452094f, 0.141860574f, 0.0328999162f, -0.0691507384f, 0.220932484f, 0.0332663767f, -0.130568862f,
  0.178946689f, 0.00152735133f, -0.181501448f, 0.121796854f, 0.0198387206f, -0.29862988f, 0.08974161f, 0.120887324f,
  -0.243013844f, 0.124298252f, 0.138468176f, -0.165743381f, 0.190207183f, 0.127964348f, -0.205913514f, 0.191622406f,
  0.0984444916f, -0.263678253f, 0.192165121f, 0.0811901018f, -0.280779183f, 0.213119656f, 0.0695681274f, -0.391557485f,
  0.193063915f, 0.118819773f, -0.321598113f, 0.177635595f, 0.123509236f, -0.474654108f, 0.19306618f, 0.108730204f,
  -0.408080757f, 0.257789969f, 0.100487828f, -0.345615804f, 0.24578017f, 0.085780099f, -0.414253056f, 0.151294023f,
  0.0500025414f, -0.529397786f, 0.0880519673f, 0.0367875621f, -0.411936402f, 0.107666947f, 0.0672584549f, -0.224705458f,
  0.172502294f, 0.101827875f, -0.346161932f, 0.257966667f, 0.151550189f, -0.253062606f, 0.238048658f, 0.183668137f,
  -0.230871677f, 0.263031155f, 0.110444598f, -0.269728124f, 0.222466722f, -0.0242752247f, -0.405660272f, 0.147259012f,
  0.0372096449f, -0.484298289f, 0.131970361f, 0.0689044222f, -0.465989292f, 0.163724244f, 0.0477425978f, -0.554574788f,
  0.191171169f, 0.0454483405f, -0.548602521f, 0.141842619f, 0.0708639994f, -0.372597575f, 0.202454224f, 0.109503612f,
  -0.417027295f, 0.200857356f, 0.017683614f, -0.41401878f, 0.214754254f, 0.0596598051f, -0.411674082f, 0.13900438f,
  -0.00535157416f, -0.428280443f, 0.155647382f, -0.0819835737f, -0.395490944f, 0.164163947f, 0.0101336446f, -0.424166471f,
  0.229580924f, -0.0119301798f, -0.536710322f, 0.124764435f, 0.0465500988f, -0.503733099f, 0.138738409f, 0.0829661638f,
  -0.366687179f, 0.222819716f, 0.0412496403f, -0.37234363f, 0.220090225f, -0.0900845528f, -0.415948212f, 0.177767158f,
  -0.0481507033f, -0.530150592f, 0.16951479f, 0.020322144f, -0.413374424f, 0.24486126f, 0.0674714372f, -0.243541211f,
  0.27242738f, 0.0222723633f, -0.306324124f, 0.33340019f, 0.0442929752f, -0.275144041f, 0.410510927f, -0.0741276219f,
  -0.373529136f, 0.39822185f, -0.0263953209f, -0.419261545f, 0.374513775f, -0.0440976024f, -0.483466268f, 0.334900618f,
  -0.0166946594f, -0.403555959f, 0.37523675f, 0.0709960386f, -0.335261881f, 0.377898008f, 0.0651805475f, -0.341562927f,
  0.332133472f, 0.000836871332f, -0.45329833f, 0.30395323f, 0.0663057938f, -0.5150792f, 0.343648314f, 0.0447483696f,
  -0.558657348f, 0.312102199f, -0.045291733f, -0.753091216f, 0.234302431f, -0.138120443f, -0.879292369f, 0.171634525f,
  -0.0824936032f, -0.87400347f, 0.255485475f, -0.0131927505f, 0.0150238182f, 0.010461852f, 0.00983699784f, 0.0128400652f,
  0.0181052573f, -0.0105845565f, 0.00822938792f, -0.0560066216f, -0.0272943992f, 0.0334334522f, -0.0362779908f, -0.00992110092f,
  0.0147766657f, -0.0101098027f, -0.0116877556f, 0.0363954753f, 0.0142465737f, -0.0118621271f, 0.0325128362f, 0.0211845227f,
  0.000990251079f, 0.0283542164f, 0.00733381556f, 0.00756205013f, 0.0140935294f, -0.00189368194f, 0.024780415f, 0.0355681032f,
  -0.0172342267f, -0.00157026784f, 8.48770142e-05f, -0.0131858531f, -0.00792629085f, -0.00260040443f, -0.0233378671f, 0.0108383987f,
  0.00517008826f, -0.0354365334f, 0.00881628692f, 0.0341895893f, -0.0245947614f, 0.0170874223f, 0.0125875855f, -0.0105440374f,
  0.00347447023f, 0.0193415601f, 0.0228084661f, 0.0132751083f, 0.0263616536f, 0.035642568f, 0.0344803035f, 0.0289418604f,
  0.0217810161f, 0.0141215166f, 0.0447986796f, 0.0510536842f, -0.00979013834f, 0.0486548319f, 0.026717525f, -0.00136588048f,
  0.011227807f, 0.0215387382f, 0.031279698f, 0.0601215065f, 0.0484025143f, -0.0115891267f, 0.0558145083f, 0.0256444085f,
  -0.0335861892f, 0.0532413051f, 0.0356820635f, -0.0502341129f, 0.0487000681f, 0.0159184504f, 0.0136163933f, 0.0664448664f,
  0.00946519803f, 0.041024901f, 0.110310733f, 0.0426319614f, 0.00781920739f, 0.0973011255f, 0.0241035279f, 0.0529868081f,
  0.0806278139f, 0.0258610379f, 0.00500909891f, 0.0330442265f, 0.0447163582f, 0.00395616842f, 0.0996137559f, 0.0629142076f,
  0.0717379674f, 0.186574399f, 0.0439764708f, 0.0284248143f, 0.140820771f, 0.00171426567f, -0.0710047707f, 0.0295956805f,
  0.059071634f, -0.0789361894f, -0.00242338981f, 0.106769331f, -0.159014791f, -0.047841724f, 0.0927716345f, -0.194977969f,
  -0.0615060255f, 0.0771244243f, -0.199473709f, -0.0964658409f, 0.139275476f, -0.20536384f, -0.210217908f, 0.0882029831f,
  -0.425592721f, -0.434121996f, -0.0220127292f, -0.43369478f, -0.402257919f, 0.00763399387f, -0.453841448f, -0.401316762f,
  0.00432175258f, -0.302024692f, -0.283096194f, 0.117620118f, -0.324289441f, -0.351980746f, 0.0759920925f, -0.41163373f,
  -0.422002137f, 0.00359422597f, -0.327118576f, -0.344118804f, -0.00189855555f, -0.428543508f, -0.382384479f, 0.0344413221f,
  -0.338751137f, -0.396223903f, -0.0250432827f, -0.3743819f, -0.377195239f, -0.046848923f, -0.39915657f, -0.357845217f,
  0.00147777982f, -0.281160176f, -0.296183228f, 0.0632703602f, -0.319844812f, -0.312920362f, 0.0818316489f, -0.451092005f,
  -0.382821679f, 0.00906961411f, -0.411739945f, -0.354471862f, -0.0323566906f, -0.437212229f, -0.320359647f, 0.00743844593f,
  -0.450815797f, -0.410352111f, -0.0123830512f, -0.370666593f, -0.374210954f, 0.0072058253f, -0.338583589f, -0.27979818f,
  0.0520466976f, -0.379121423f, -0.305343032f, 0.0469605699f, -0.274332285f, -0.247001201f, -0.00231251772f, -0.232593983f,
  -0.156920448f, 0.0539538078f, -0.248765856f, -0.13089776f, 0.0497930683f, -0.228162467f, -0.125517339f, 0.0447482429f,
  -0.160683483f, -0.0757365078f, 0.0509258173f, -0.0369654261f, 0.0924870372f, 0.0558668412f, -0.0907058716f, 0.00295266695f,
  0.0697307438f, -0.0878927484f, 0.00636060722f, 0.0676964968f, -0.0162090138f, 0.073102355f, 0.0751684085f, 0.00163059589f,
  0.0440692678f, 0.0215449892f, -0.0720780268f, -0.0116735194f, -0.0283866152f, 0.0104606431f, 0.0634320155f, 0.0280481391f,
  0.064011611f, 0.0818478987f, 0.0710572377f, 0.0519271642f, 0.0976777077f, 0.0860334113f, -0.0226940047f, 0.0475156382f,
  0.0190288089f, -0.0331461951f, 0.0254436024f, -0.0137874903f, -0.00398390833f, 0.0965981185f, 0.0785463527f, 0.0782149285f,
  0.0889717266f, 0.0397354364f, 0.0760293826f, -0.0186230857f, 0.00490627065f, 0.0288051721f, 0.0357703045f, 0.0494074412f,
  0.0603407361f, 0.0330106206f, 0.0813177079f, 0.0316171944f, 0.0352164693f, 0.0850145742f, -0.0139529919f, 0.0539183058f,
  0.0535015799f, 0.0154476436f, -0.00659696385f, 0.0815555751f, 0.00951490551f, 0.0312771872f, 0.0848484114f, 0.0639880002f,
  0.0150841493f, 0.0791083798f, 0.035353262f, 0.0347773358f, 0.046064686f, 0.00416305382f, -0.052020371f, 0.0292052459f,
  0.0142815169f, -0.0864591897f, -0.0325874463f, 0.0439863279f, -0.0641615093f, -0.0539445616f, 0.0110839875f, -0.0858337134f,
  -0.0393405296f, -0.0278751664f, -0.0321379043f, 0.00758503843f, 0.0262389407f, -0.00355089479f, 0.064815104f, 0.0529017039f,
  -0.0295156538f, 0.0492277443f, 0.0543405339f, 0.0321643837f, 0.0449668653f, 0.0600623488f, 0.0240776036f, 0.00762492884f,
  0.0732791051f, 0.0523433685f, -0.0199538246f, 0.0510640144f, -0.00248659309f, 0.00377731305f, -0.00131283607f, -0.0643437281f,
  0.0382392816f, -0.027715221f, 0.00280908216f, 0.0553662851f, -0.0261302963f, 0.0376672409f, 0.0252229739f, 0.0469197109f,
  -0.00127607863f, 0.0113943126f, 0.0733042657f, 0.00922476873f, 0.025299672f, 0.0225064978f, -0.00439274311f, 0.0603101514f,
  -0.0194921121f, -0.0584114939f, 0.0188488346f, 0.0305924751f, 0.0191085972f, 0.018975703f, 0.0360169448f, 0.0375097878f,
  0.0595204122f, 0.0366188958f, 0.00773242256f, 0.100853667f, 0.0175488479f, 0.00943080895f, 0.00665853545f, 0.00901254453f,
  0.058111012f, 0.0212264322f, 0.0561195761f, 0.0523711629f, 0.0623701438f, 0.0381998271f, 0.0447965376f, 0.0573634058f,
  0.00063241832f, 0.0579886213f, 0.0307461303f, 0.0118783386f, 0.00782847125f, 0.0484012403f, 0.034829475f, -0.0118107311f,
  0.0738248229f, 0.0190382488f, 0.0301218387f, 0.0868725032f, 0.0809897482f, 0.0488316752f, 0.0681371838f, 0.146820039f,
  0.0438591242f, 0.129651591f, 0.0340126865f, -0.0305340476f, 0.154525995f, 0.0278963223f, -0.0264872331f, 0.101401344f,
  -0.000826447271f, -0.0130808083f, 0.132317796f, 0.0146210426f, 0.0120923612f, 0.222014919f, 0.0281476788f, -0.0294458196f,
  0.262707084f, 0.0733881071f, 0.032623969f, 0.246218711f, 0.110711612f, 0.0248505622f, 0.18341504f, 0.101214595f,
  0.0153771387f, 0.186308026f, 0.133660674f, 0.0091139162f, 0.190505281f, 0.176376253f, 0.0338617787f, 0.211553499f,
  0.0557319f, 0.0424391702f, 0.220505044f, -0.0791073591f, -0.0706836432f, 0.131152451f, -0.0767753422f, 0.0425301306f,
  0.00118441926f, 0.0817671493f, -0.037976101f, 0.0182839781f, 0.00585544296f, -0.158214539f, -0.0185129587f, 0.151805773f,
  -0.154778928f, 0.015543649f, 0.108139485f, -0.148265556f, 0.00191588246f, 0.133977413f, -0.123347007f, 0.0527141243f,
  0.0839944705f, -0.155271277f, 0.0853013098f, 0.0612578802f, -0.169886649f, 0.113188595f, 0.0642077848f, -0.209428772f,
  0.20724532f, -0.0536717027f, -0.270043284f, 0.323735982f, -0.0840646178f, -0.38190186f, 0.319268376f, -0.162761003f,
  -0.353911966f, 0.285529494f, -0.0872827917f, -0.330509275f, 0.157807738f, -0.0941913053f, -0.293991327f, 0.138632134f,
  -0.151141316f, -0.185054943f, 0.0953884125f, -0.0729592592f, -0.0823973864f, 0.0906562284f, -0.0676018f, -0.0403186344f,
  0.0995795727f, -0.0193134472f, -0.0404430702f, 0.100266099f, -0.064877972f, -0.0680066049f, 0.120476961f, -0.0244394988f,
  -0.0424574129f, 0.0920754373f, 0.00358684314f, -0.04040692f, 0.0668028519f, -0.0154134957f, -0.0870978907f, 0.0736765787f,
  -0.0147378678f, -0.0632425845f, 0.0682162941f, 0.0129760485f, -0.0930198207f, 0.090824753f, -0.0308923926f, -0.0381575972f,
  0.147785932f, -0.0395180099f, -0.0739590749f, 0.141238913f, -0.0667784438f, -0.170002669f, 0.114198297f, -0.0586924776f,
  -0.116327785f, 0.0914629102f, 0.0569403507f, -0.0288980603f, 0.0738265812f, 0.0396283641f, -0.0689888969f, -0.00733892247f,
  -0.00979039446f, -0.0909532979f, -0.0225900449f, 0.0130073037f, -0.126253769f, 0.0267911013f, -0.0103666196f, -0.108876556f,
  0.087449342f, 0.0140210297f, -0.109190352f, 0.0853039697f, -0.0285926983f, -0.15234378f, 0.047987178f, -0.0423463136f,
  -0.154908463f, 0.0477405787f, -0.0307427179f, -0.0852749124f, 0.0395636559f, -0.0536879636f, -0.0411298759f, 0.0672950521f,
  -0.0489154086f, -0.0737576261f, 0.0480009019f, -0.0109171839f, -0.0241158679f, 0.0788966715f, -0.0328752659f, 0.00849389099f,
  0.01954275f, -0.0419849604f, -0.0167880878f, 0.00538168382f, -0.00265711127f, -0.0530829653f, 0.0128127011f, 0.0259357542f,
  -0.0382443182f, 0.0170364156f, 0.00544756558f, -0.0475030504f, 0.0612780303f, -0.0550211407f, -0.0810138434f, 0.0741396248f,
  0.00935458951f, -0.0304146204f, 0.0268258955f, 0.00489494437f, 0.0425689742f, 0.0951077044f, 0.0304404385f, 0.00920435414f,
  0.0632008016f, 0.0291584246f, -0.0604758784f, 0.039956104f, -0.00839629769f, -0.085124433f, 0.0345295221f, -0.0476238132f,
  -0.0659054965f, 0.0303187147f, -0.0657011047f, -0.0918576047f, -0.00279999711f, -0.0626614764f, -0.0359979346f, 0.0120282844f,
  -0.0217235144f, -0.0546848886f, -0.0223393124f, -0.0930660069f, -0.0118684284f, 0.0675218254f, -0.0285512656f, -0.0257023908f,
  0.0322751999f, -0.00555149745f, -0.0946286172f, 0.021232713f, 0.0234575421f, -0.0726783425f, 0.0083607994f, 0.0104820449f,
  -0.0695537329f, 0.00850521214f, -0.0106658917f, -0.00666260021f, 0.0665265322f, 0.0433732383f, 0.0557357594f, 0.075034678f,
  0.0286724623f, 0.00126510998f, 0.0163073819f, 0.00965586491f, 0.00145305251f, 0.0375299603f, 0.0166721046f, -0.0167063177f,
  -0.0262298193f, -0.00594039587f, -0.0216926355f, -0.0141836544f, -0.00642835116f, 0.00657861633f, 0.0913366601f, 0.0433082655f,
  0.0224768762f, 0.0801509023f, 0.0793090984f, 0.00187444082f, 0.0064747436f, 0.0878359079f, 0.0137445182f, 0.0370544679f,
  0.00187601987f, -0.0556342453f, -0.0497961603f, -0.0184125975f, -0.0164781883f, -0.0359404385f, 0.0887415484f, -0.0340428539f,
  0.0140903769f, 0.0652939975f, -0.0240883864f, 0.0581168868f, 0.0827466846f, -0.00420619408f, 0.0633647665f, 0.0543447882f,
  0.0393237732f, 0.112944901f, 0.0472721271f, 0.0114044473f, 0.0602950826f, 0.0655460805f, -0.0170779005f, 0.0520526469f,
  0.00601983117f, -0.0279104207f, 0.0652749911f, 0.048429057f, -0.0489282161f, 0.0266154036f, 0.030805422f, -0.0279383156f,
  0.0476009846f, 0.0874874517f, 0.0424282849f, 0.00122695218f, 0.112449333f, 0.0262143463f, -0.00930094719f, 0.0974753499f,
  -0.0238005314f, 0.074870266f, 0.0425819494f, -0.0377593637f, 0.0243730694f, 0.0234257467f, 0.00284695672f, 0.0492545478f,
  0.0551675744f, 0.0239050835f, 0.0768491104f, 0.0419378467f, 0.000961123093f, 0.0928734764f, 0.0271463208f, 0.0102114417f,
  0.0691352934f, -0.0261645783f, -0.0105935829f, 0.00171196298f, 0.017788209f, 0.00430310704f, -0.034597557f, 0.0136632416f,
  0.0109190904f, 0.00497103669f, 0.0143209752f, 0.0351129733f, 0.0501151271f, 0.0137127414f, -0.0168267526f, 0.0284322295f,
  0.0233786777f, -0.0309690423f, -0.00149230286f, -0.00041214237f, 0.0494874343f, 0.0542138666f, -0.00504182745f, -0.0124395089f,
  0.00586861186f, 0.0378706045f, 0.0279235151f, 0.0853702798f, 0.0235577971f, 0.0453035906f, 0.0591269098f, 0.0446309447f,
  -0.0295253936f, 0.0072858152f, 0.031450361f, -0.0470622107f, 0.041116789f, 0.0833091289f, 0.0240317993f, -0.00309210597f,
  0.0571576059f, 0.0222959034f, 0.0544135384f, 0.035725899f, 0.0365192294f, 0.0688832179f, 0.0237657335f, 0.0328687802f,
  0.0451113284f, 0.0224937312f, -0.0218573138f, 0.0704377741f, 0.0376259051f, -0.021146575f, 0.0861008689f, 0.00325305131f,
  0.0315393247f, 0.0767493695f, -0.00162409386f, 0.0200906452f, 0.0750248656f, 0.0355637185f, 0.0276931375f, 0.0427208692f,
  0.0673027933f, -0.0405566432f, 0.0836697072f, 0.0504203476f, 0.00285461172f, 0.0612980351f, 0.0528838299f, 0.0284544267f,
  0.0303328484f, 0.0189058501f, 0.0635628998f, 0.0636333898f, 0.0148966983f, 0.0758732334f, 0.129587129f, 0.0509272665f,
  0.0939006656f, 0.0871260762f, 0.0033460753f, 0.0124694128f, 0.00298500294f, -0.0492493063f, -0.0207479559f, -0.0457314551f,
  -0.0237088464f, -0.0128962714f, -0.0656605512f, -0.042373322f, -0.0194739662f, -0.0719364136f, -0.0413445085f, -0.0255184639f,
  -0.050199762f, -0.0339786001f, 0.00263343938f, -0.0215109233f, -0.0262856446f, 0.00188226765f, -0.0851531103f, 0.0612735078f,
  -0.0630286634f, -0.0974932089f, 0.107263245f, 0.008410112f, 0.00476533081f, 0.089144066f, 0.0549052842f, 0.00470935181f,
  0.158360839f, 0.0443089455f, 0.0243176389f, 0.206954271f, 0.0923710763f, 0.0137551054f, 0.22817637f, 0.204124063f,
  0.0383351706f, 0.025438631f, 0.0160268247f, 0.0119766537f, -0.0174169037f, -0.010859808f, -0.00340278726f, 0.00103801396f,
  -0.00569535419f, 0.00905865058f, -0.00690030865f, -0.00480448781f, -0.0168111492f, -0.0223502591f, -0.00659954268f, 0.00198443653f,
  0.0318986923f, 0.0379075892f, 0.0279718004f, -0.00210196385f, 0.0419804752f, 0.0608589351f, -0.0346702076f, 0.0909961835f,
  0.0791131556f, -0.0558729693f, 0.0989479721f, 0.0872675478f, -0.08888264f, 0.0690054446f, 0.0892473459f, -0.150391951f,
  -0.0577337146f, 0.0635168552f, -0.178259611f, -0.116837777f, 0.0159145538f, -0.187583715f, -0.165421635f, -0.0449426174f,
  -0.160731882f, -0.124557324f, -0.0518445447f, -0.135826886f, -0.121295035f, -0.043714758f, -0.101244472f, -0.102850214f,
  -0.0490129329f, -0.0717759505f, -0.0913929418f, -0.0355078056f, -0.0231284574f, -0.0444787517f, -0.0159315225f, -0.034149792f,
  -0.0429095551f, -0.029905986f, -0.0155752897f, -0.0361991413f, -0.0291441567f, 0.0151793789f, 0.0281043239f, 0.0204601977f,
  0.00184973096f, 0.0556548163f, 0.00830018055f, -0.00266126473f, 0.0433253199f, 0.000185992918f, 0.0117636165f, 0.0517905094f,
  0.0248464998f, 0.0218436532f, 0.0335314944f, -0.00108744809f, 0.00946715847f, -0.0156337284f, -0.0172292925f, -0.00915666018f,
  -0.00228992617f, 0.00554060936f, 0.0138187623f, 0.0175779685f, 0.00150921266f, -0.00868415367f, -0.0201976746f, -0.0113292113f,
  -0.0151201542f, 0.00615132228f, -0.0158445779f, -0.00164658052f, 0.0213543177f, -0.0050120051f, 0.00454963371f, 0.00823435467f,
  -0.0139346644f, -0.0108609023f, 0.00188963593f, 4.1960855e-05f, -0.000684852479f, 0.0140703712f, 0.0119058676f, 0.00937659107f,
  0.011513236f, 0.0158794448f, -0.00288756168f, -0.0151011953f, -0.00266118208f, -0.000155272195f, 0.019899426f, -0.0117384037f,
  -0.00510034803f, -0.00334125874f, -0.00971580297f, 0.00470105233f, -0.00533725927f, -0.000750305597f, 0.0195639189f, 0.0256823804f,
  0.00895068236f, 0.0101521192f, 0.0084547149f, -0.00307090208f, -0.000617009122f, 0.0325027891f, 0.00759118469f, 0.00260640169f,
  0.0262031481f, 0.00352809438f, -0.00256280368f, 0.00211253669f, -0.0172898192f, -0.000852374127f, 0.0138544105f, -0.00621798774f,
  -0.00673910044f, 0.0274707153f, -0.000153512519f, -0.0174290463f, -0.00538074551f, -0.0165223721f, 0.000663284329f, -0.00129679509f,
  0.000406383828f, 0.00226813345f, -0.000128505038f, -0.00113926036f, -0.00787305553f, -0.0218942221f, -0.0021369583f, 0.00158705004f,
  -0.040485166f, -0.0143426144f, 0.0157526862f, 0.011542717f, 0.0161783528f, 0.00640000217f, 0.00436578924f, 0.0118545936f,
  0.00783392694f, 0.00201019319f, -0.00133618177f, 0.00438395515f, 0.00647647958f, -0.00886061136f, 0.0222022943f, 0.0367590152f,
  0.00338632939f, 0.00457275286f, 0.00717660179f, 0.0124182953f, -0.000661185302f, -0.000214905551f, 0.00998202711f, 0.00279545202f,
  0.0075307088f, 0.0172505155f, 0.0173902344f, -0.00505464431f, 0.00388658512f, 0.0158849433f, -0.00968295895f, 0.000215829525f,
  0.00376867084f, 0.0040870863f, 0.0121531943f, -0.00320936413f, -0.00250872131f, 0.0054563703f, 0.00197583321f, -0.000419259537f,
  0.001503165f, -0.00183395343f, 0.0110485293f, -0.0149052516f, 0.00402974244f, -0.0164130703f, -0.0207903907f, 0.0279805325f,
  0.0134374294f, 0.00322327483f, 0.017199181f, -0.0144390976f, 0.00895234849f, 0.0148249138f, 0.00727762887f, 0.00931899995f,
  0.0183896758f, 0.0112645105f, -0.00908311643f, 0.0138950814f, -0.01480579f, -0.000810330734f, 0.0249322094f, 0.0120301377f,
  0.0150599796f, 0.0291142501f, 0.0126457475f, -0.00282533397f, -0.00219810847f, -0.0118198199f, -0.0102343429f, 0.00441679731f,
  -0.0213317145f, 0.0116742235f, 0.0212874413f, 0.0121561522f, 0.0141057884f, 0.00955115166f, -0.00283328164f, 0.015647456f,
  -0.00355674094f, -0.0371216461f, 0.00460006483f, 0.0178550687f, -0.0176657941f, 0.00481482595f, 0.0119240014f, 0.0025008833f,
  -0.00164707098f, -0.0156778954f, -0.0205195304f, 0.00648651645f, -0.00597400451f, 0.00616098382f, 0.00868429616f, 0.0113828527f,
  0.00646300334f, 0.0139442049f, 0.0120542077f, -0.0143238911f, 0.0115338014f, 0.0128184306f, -0.0363096967f, 0.00524411164f,
  0.00286199688f, -0.0265002698f, -0.0270432159f, 0.00808932167f, -0.00210901233f, -0.0080287857f, 0.0104312953f, -0.000179867726f,
  -0.0112693729f, 0.0267621391f, -0.0136784688f, -0.0178472232f, 0.0295606107f, 0.00611166842f, 0.00017822301f, 0.0104422029f,
  -0.0015661018f, -0.0170454495f, 0.00734859891f, -0.00756752864f, -0.0188604929f, 0.00975025631f, -0.00831086747f, -0.0139228646f,
  0.0139588844f, 0.00281598f, 0.00520254066f, 0.00446817186f, -0.00874244794f, -0.0100654131f, 0.00119047123f, 0.00141400099f,
  0.00902216695f, 0.0065841428f, 0.000218510162f, -0.0026897362f, 0.00930735469f, 0.0103988163f, 0.0132634724f, 0.00386544131f,
  0.010270033f, 0.0115951858f, 0.00467219017f, -0.00244854344f, -0.00224296027f, 0.00628606696f, 0.0144043369f, -0.00485271635f,
  0.00190165802f, 0.0117464876f, 0.0066019278f, 0.0158155337f, -0.00527645648f, -0.000581436325f, 0.000351262628f, -0.0329311527f,
  0.0104476754f, -0.0082467543f, -0.0282797813f, 0.00131399487f, -0.016285684f, -0.0124131273f, -0.00931636151f, -0.00447718892f,
  -0.0146865696f, -0.00565371057f, 0.00384993292f, 0.0136577561f, -0.00634874031f, -0.0101642702f, -0.00270846183f, -0.00376749551f,
  -0.00323294592f, -0.0203595478f, 0.00625680247f, 0.0192455109f, 0.00208698912f, 0.0126481038f, 0.0116979154f, -0.00252767326f,
  0.0187887382f, 0.0141353598f, 0.0431408063f, 0.021548355f, 0.0182915349f, 0.0451393723f, 0.0186233651f, 0.00726339919f,
  -0.00401290879f, 0.00675616926f, 0.0122500174f, 0.00872961245f, 0.00219944119f, -0.00928582996f, -0.0117394049f, -0.00930945296f,
  -0.012073176f, -0.00181333674f, 0.000157899573f, -0.00282562827f, 0.00769913476f, -0.00799589511f, -0.00698675914f, 0.020770805f,
  -0.0157551356f, -0.00294268876f, 0.015791107f, 0.00470798183f, -0.00231627026f, 0.047885377f, 0.013943715f, 0.00552180316f,
  0.0287504494f, 0.0299761556f, -0.00240332983f, 0.0440880843f, 0.0119660944f, -0.0133537455f, 0.0139231663f, 0.000660561258f,
  -0.0223189872f, -0.00545995357f, -0.00571990246f, -0.0288173445f, 0.0200689528f, 0.014300677f, -0.0275837351f, 0.00312754093f,
  -0.0132700987f, -0.0171748679f, 0.0223642141f, -0.0259366818f, -0.00550961029f, -0.0174768083f, 0.0207542907f, 0.0948668569f,
  -0.00376580656f, -0.0157143138f, -0.0014354859f, -0.0278244317f, 0.0281559005f, -0.0724610239f, -0.0512115657f, 0.0146176964f,
  -0.0883632973f, -0.0406078771f, 0.0856149122f, -0.179541364f, 0.00680796802f, 0.0538445562f, -0.203683063f, -0.0749276131f,
  0.0273273475f, -0.132960632f, -0.065742068f, 0.0728240684f, -0.1273745f, -0.0571918525f, 0.0534367524f, -0.138842463f,
  -0.0503336526f, 0.0392071642f, -0.115562364f, -0.0178763531f, 0.056430988f, -0.076997675f, 0.00641231146f, 0.0664639249f,
  -0.089950189f, -0.00648953952f, 0.0350408517f, -0.0897345692f, 0.0536533818f, 0.0578701608f, -0.0848158598f, 0.0635882765f,
  0.0418273695f, -0.0269479193f, 0.0309892539f, 0.0251415428f, -0.120120749f, 0.0507566631f, 0.0381916948f, -0.113919437f,
  0.0524396971f, 0.0276654027f, -0.095573701f, -0.00345389801f, 0.0019648918f, -0.0570810363f, 0.0065141255f, 0.0431849994f,
  -0.0851891711f, 0.0147277685f, 0.0327848345f, -0.0492823422f, -0.01108527f, 0.0723132938f, -0.0802051574f, -0.0360211171f,
  0.0424986705f, -0.044864364f, -0.0465813614f, 0.0380285755f, 0.00602296693f, -0.080621928f, 0.0518097244f, 0.0355356373f,
  -0.00650138361f, 0.064889133f, 0.0136708375f, -0.0226760358f, 0.058249265f, -0.0289886557f, -0.0367952585f, 0.0212527607f,
  0.00977347512f, -0.013994067f, 0.0496737994f, 0.00754298177f, -0.0118330019f, 0.0275701992f, -0.0181238707f, 0.00979728252f,
  0.0449652076f, -0.0294312667f, -0.000823391601f, 0.0285175331f, 0.00712070661f, -0.00859005935f, 0.0125230849f, 0.0722779185f,
  0.0342169516f, 0.0377420671f, 0.0393878073f, -0.0401289538f, 0.0237834528f, 0.0317301489f, -0.017000217f, 0.0482264832f,
  0.00442558434f, -0.0442131795f, 0.00873236451f, 0.059050478f, -0.0390784144f, 0.00765805785f, 0.0708179027f, -0.0487760231f,
  0.0328587629f, 0.0113537703f, -0.0818910003f, 0.0174700804f, 0.00438311836f, -0.11263442f, -0.00192343839f, -0.0251925383f,
  -0.0582537055f, -0.0101810563f, -0.0049046129f, -0.0192703046f, 0.0115678757f, -0.000305078924f, -0.0442564525f, 0.0181490239f,
  0.00982323289f, -0.0582079589f, 0.00270883413f, 0.0394410715f, -0.00943099242f, 0.00556876138f, -0.00557610486f, -0.0591246709f,
  -0.00994538143f, -0.0101485653f, -0.016368676f, -0.0386453234f, 0.0153129529f, -0.0189866386f, -0.0185656361f, 0.0685655549f,
  -0.0519357026f, 0.00282194512f, 0.0562579297f, -0.0151604358f, 0.00992826186f, 0.00357759837f, -0.069642894f, -0.0397883616f,
  -0.00162998051f, -0.0612824447f, -0.0432022214f, 0.029805243f, -0.0546335876f, 0.0186876245f, 0.0875966623f, -0.139912993f,
  -0.0370833538f, 0.10707932f, -0.137864411f, -0.0543811098f, 0.121257707f, -0.112672992f, -0.042300418f, 0.0595644042f,
  -0.180869371f, -0.114743873f, 0.103485264f, -0.145673424f, -0.0792794302f, 0.104091063f, -0.134937808f, -0.0323861539f,
  0.0620316043f, -0.200194091f, -0.0590365455f, 0.10126704f, -0.1813059f, -0.0762776434f, 0.122716732f, -0.154673412f,
  -0.0219602361f, 0.128335625f, -0.111244597f, -0.0444902256f, 0.0659824014f, -0.17811662f, -0.109485373f, 0.133148819f,
  -0.224200815f, -0.116952911f, 0.121687599f, -0.157830477f, -0.0788556486f, 0.118879803f, -0.086491853f, -0.0531775951f,
  0.0882715881f, -0.10641472f, -0.107148573f, 0.083825767f, -0.19334738f, -0.227025226f, 0.129799053f, -0.156597793f,
  -0.227823347f, 0.127492055f, -0.0923048556f, -0.116493277f, 0.0979420096f, -0.102344319f, -0.154479444f, 0.073378779f,
  -0.133038044f, -0.252043515f, 0.0908987075f, -0.0968294665f, -0.156549245f, 0.0680295229f, -0.0480328351f, -0.164395213f,
  0.0754362196f, -0.0405875146f, -0.175803199f, 0.0605580993f, -0.0917583928f, -0.255497754f, 0.0874643847f, -0.0997758508f,
  -0.265007198f, 0.108323589f, -0.0651113093f, -0.208069354f, 0.103386059f, -0.0256587118f, -0.132224083f, 0.05140898f,
  -0.11387042f, -0.233186409f, 0.0339117758f, -0.121569052f, -0.266848862f, 0.0233982541f, -0.18995969f, -0.259418726f,
  0.0218524877f, -0.0895951986f, -0.205320895f, 0.0408692993f, -0.0257876888f, -0.163437843f, 0.0602940395f, -0.146833047f,
  -0.208361149f, 0.050765153f, -0.0982397199f, -0.0976409987f, 0.0478572212f, -0.00601576362f, -0.0670803636f, 0.053667549f,
  -0.0135120722f, -0.104748778f, 0.0501519181f, -0.00838060118f, -0.0882297605f, -0.0025226539f, -0.0808590651f, -0.201148748f,
  0.0531328693f, -0.0723999664f, -0.186238468f, 0.0502022989f, -0.093006745f, -0.175083816f, 0.0893632695f, -0.0405449681f,
  -0.166877255f, 0.0774522871f, 0.00319876708f, -0.0842759758f, 0.0681291297f, -0.0392261297f, -0.127612203f, -0.00739911664f,
  -0.111404076f, -0.221338198f, 0.0269576479f, -0.0288844854f, -0.148786977f, 0.0449745283f, 0.00130684674f, -0.125535041f,
  0.0941855237f, 0.0049441848f, -0.122445509f, 0.146420091f, 0.0438914597f, -0.0930922925f, 0.11017891f, -0.0567454994f,
  -0.0837504417f, 0.0885226578f, -0.0261708423f, -0.0799372718f, 0.0954687744f, 0.0219333321f, -0.0407758094f, 0.108518735f,
  0.0511343852f, -0.0220310763f, 0.0748596936f, 0.0538243577f, -0.0201184191f, 0.0712527558f, 0.0432623327f, -0.0364615768f,
  0.040706411f, 0.0521541424f, -0.0222272817f, 0.0931098908f, 0.0381541327f, -0.0449681804f, 0.138106734f, 0.0755703896f,
  -0.0170115214f, 0.176477075f, 0.140377536f, -0.00334808696f, 0.191816688f, 0.0628599674f, -0.00383482827f, 0.141902208f,
  0.135656506f, -0.0113487886f, 0.101162024f, 0.180538327f, 0.00445894478f, 0.155802429f, 0.168543994f, -0.00524179591f,
  0.166181326f, 0.0953566805f, -0.105747558f, 0.108270578f, -0.104207471f, -0.451008499f, 0.129786626f, -0.246715128f,
  -0.57081598f, 0.178934008f, -0.181753948f, -0.522949815f, 0.144993484f, -0.141728371f, -0.547676265f, 0.12467584f,
  -0.173897952f, -0.570641339f, 0.0589598566f, -0.284111917f, -0.630671322f, 0.0378558151f, -0.24270235f, -0.674154997f,
  0.00393863581f, -0.269033611f, -0.801302671f, -0.0542531125f, -0.381495386f, -0.855532527f, -0.155412525f, -0.586569548f,
  -1.07979608f, -0.181889504f, -0.608319581f, -1.10591412f, -0.16270268f, -0.446675539f, -0.948716521f, -0.182594925f,
  -0.126424149f, -0.335773379f, 0.334317088f, 0.647145987f, 0.472962677f, -0.380153924f, -0.421424806f, -0.523701191f,
  0.0662167668f, -0.181062907f, -0.604282022f, 0.24275203f, 0.150260568f, 0.0599874333f, 0.0242056102f, 0.0746547505f,
  0.101979345f, 0.0373524502f, 0.0656795278f, 0.026565738f, 0.0216455385f, -0.0102136778f, -0.0605487302f, 0.0178649127f,
  0.0345271491f, -0.0926456973f, -0.0393374637f, 0.0979673192f, -0.113119349f, -0.0184305348f, 0.0879807919f, -0.085082449f,
  0.0789535493f, 0.0548442528f, 0.0488550924f, 0.0146696512f, -0.0294595193f, -0.00697674602f, 0.0641984195f, 0.0136138946f,
  0.0278484803f, -0.0574765354f, -0.0288436785f, -0.0800678805f, 0.0245808046f, -0.0613309965f, -0.0080671683f, 0.0139599834f,
  -0.0170208029f, 0.0517420657f, -0.0312157199f, 0.0249187443f, 0.0107716396f, -0.107080579f, 0.0635284334f, -0.0439687409f,
  -0.139637262f, 0.107691027f, -0.0819991454f, -0.0543495789f, 0.0297039412f, -0.0822418556f, -0.0176573079f, 0.0331852101f,
  0.0658765808f, -0.0667178482f, -0.00710140076f, 0.068469137f, -0.00962477364f, -0.0302936062f, 0.0684634224f, -0.009231098f,
  -0.0381517597f, -0.00397025887f, 0.0332557596f, 0.0605685823f, 0.0120671364f, 0.0384319574f, 0.0779398456f, 0.0265187435f,
  0.00127986586f, 0.0840859935f, -0.0250857677f, -0.0696814954f, 0.0414337404f, -0.0227402039f, 0.00378340972f, 0.0378939472f,
  -0.0621805042f, 0.0823408216f, 0.0933566391f, -0.0573514514f, 0.0572023615f, 0.0838886946f, 0.0420530587f, 0.00137806172f,
  0.0179870334f, 0.0499540269f, -0.0223117005f, -0.107388228f, -0.0410880223f, -0.0697160363f, -0.189639881f, -0.152145162f,
  -0.0895462185f, -0.100923717f, -0.0820313171f, -0.0518765561f, -0.0107898097f, -0.0345690846f, 0.0101523157f, -0.0316147618f,
  0.0419866294f, 0.078315258f, -0.0740541816f, 0.104711473f, -0.11348632f, -0.188545406f, -0.0512624532f, -0.05061258f,
  -0.0771989152f, -0.0585306361f, 0.0430263914f, 0.0241915677f, -0.0470196828f, 0.0200896114f, 0.0834163204f, -0.0787427723f,
  -0.0915702432f, 0.105344482f, -0.185851827f, 0.0380477123f, 0.0786298737f, -0.0896001011f, 0.119100176f, 0.0849626362f,
  -0.124495029f, 0.139286414f, 0.0502888635f, 0.0156770833f, 0.0734631494f, -0.0259614717f, -0.0421146825f, 0.00113780797f,
  -0.0335244723f, -0.017214343f, 0.0408003628f, 0.0398674682f, 0.00772345904f, 0.0902894288f, 0.0825364813f, -0.0230173394f,
  0.0715548545f, 0.112640493f, -0.0716188848f, 0.0248668808f, 0.108272903f, -0.045938842f, -0.00620700885f, 0.068099916f,
  -0.120907024f, -0.110693008f, -0.00736552896f, -0.102214046f, -0.133143321f, -0.00228735525f, -0.0283259898f, 0.02766026f,
  0.0810318366f, 0.0112040434f, 0.00207156129f, 0.0786749721f, 0.0592385083f, 0.000681854784f, -0.0418177806f, -0.0303759724f,
  -0.0142477844f, 0.0156484656f, -0.0307269711f, 0.0252915602f, 0.0603512377f, 0.0540283807f, 0.0357540026f, 0.00357980235f,
  -0.0169901028f, 0.010369434f, -0.0211858489f, -0.116364509f, 0.0851162896f, 0.0495533086f, -0.0382005051f, 0.0712849647f,
  -0.0127550066f, -0.09750925f, 0.0481012873f, 0.0799179599f, -0.0781736597f, 0.0412550196f, 0.0586011037f, -0.0938598663f,
  0.0511570834f, 0.100108854f, -0.0912322104f, -0.0834326148f, 0.0625657812f, -0.0998685509f, -0.0609477535f, -0.0415468365f,
  -0.157438353f, -0.0139194634f, 0.014577074f, -0.0712596923f, 0.0202100929f, 0.119470187f, 0.0516463853f, -0.0211114846f,
  0.0350379609f, 0.0103616863f, -0.026269624f, -0.00359846465f, -0.0808312893f, 0.0131566897f, 0.015165762f, -0.08759287f,
  0.0758462101f, 0.0449283794f, -0.0494291484f, 0.0124782184f, -0.00739702582f, -0.146634266f, -0.00611684658f, 0.0592205636f,
  -0.093303822f, -0.0123587474f, 0.051438015f, -0.0964904279f, 0.035502661f, 0.0856280774f, -0.0425399914f, 0.0703007132f,
  0.0926047638f, -0.0716298372f, -0.0195698105f, 0.0446025208f, -0.0821378455f, -0.0576261058f, 0.112592332f, -0.0466650054f,
  0.00348541047f, 0.099835448f, 0.00430438668f, 0.0217397902f, 0.123473123f, -0.0339150652f, -0.00868813135f, 0.146470636f,
  -0.0639360622f, -0.0132279592f, 0.111799233f, -0.0700604171f, -0.0204816218f, 0.0683603138f, -0.0171631016f, -0.00519808754f,
  0.0650011897f, -0.00787311234f, 0.0587625764f, 0.170534641f, -0.000370417722f, 0.0817874074f, 0.152120784f, -0.0304766446f,
  0.0964754596f, 0.125197247f, -0.0867898166f, -0.0601662993f, 0.0576219298f, -0.106732279f, -0.0289318711f, 0.115313709f,
  -0.0790043473f, -0.0573484935f, 0.092288442f, -0.0932895914f, 0.0366000608f, 0.117163271f, -0.0397664756f, 0.0149944145f,
  0.0741547942f, -0.0957382843f, -0.00184079818f, 0.140669554f, -0.0478066131f, 0.0896112099f, 0.115302235f, -0.128529072f,
  0.0981640443f, 0.204775721f, -0.000960930251f, -0.0447955914f, 0.142595008f, -0.0431655385f, 0.0562663116f, 0.0447511151f,
  -0.0990702957f, 0.0812042207f, 0.0488166511f, -0.0667109638f, -0.00130254542f, 0.101549894f, -0.0268445034f, -0.0123690274f,
  0.07761015f, -0.0169287771f, -0.0126281111f, -0.000526404474f, -0.0469379053f, 0.0239118971f, 0.0967719927f, -0.0967379212f,
  -0.0140684163f, 0.103673249f, -0.0697571635f, 0.0105655622f, 0.0884809121f, -0.00325425575f, -0.0416598506f, 0.130183324f,
  -0.0177936703f, 0.0324474722f, 0.109169245f, -0.0509858876f, 0.0711400062f, 0.109389603f, -0.0487183072f, 0.0769089311f,
  0.143313289f, -0.0634189695f, 0.0193040259f, 0.1034398f, -0.108280905f, -0.0572706163f, 0.102972738f, -0.0419123992f,
  -0.0339579731f, 0.14987728f, -0.122451872f, 0.0275272653f, 0.0900574028f, -0.106089011f, 0.153604209f, 0.189809129f,
  -0.00775848469f, 0.205866978f, 0.255984396f, 0.00978516415f, 0.136027306f, 0.230030909f, 0.0102855284f, 0.174372166f,
  0.165195614f, -0.00480598072f, 0.116251938f, 0.142347381f, -0.110050209f, 0.0799213797f, 0.110082589f, -0.144430742f,
  0.0299204141f, 0.0657716319f, -0.167522311f, 0.048737321f, 0.0886737108f, -0.201446295f, -0.0143248774f, -0.0386443548f,
  -0.23796232f, 0.0172712468f, 0.0162924975f, -0.264139026f, 0.0280650593f, 0.0600352362f, -0.352639169f, 0.0369647965f,
  0.011558298f, -0.53851974f, -0.0289481189f, -0.0125353625f, -0.0294651352f, 0.0476759933f, 0.004694317f, -0.0235463418f,
  0.0522279143f, 0.0326353014f, -0.0548155531f, 0.110384539f, -0.0169955809f, -0.0987873599f, 0.0256105382f, -0.0286654402f,
  -0.0752353817f, 0.0302581042f, 0.0912811607f, -0.084390536f, -0.022987742f, 0.04519324f, -0.0580684654f, 0.0253911503f,
  0.0705085546f, -0.0274795555f, 0.140672699f, 0.119824529f, 0.0037247173f, 0.101920031f, 0.0149431927f, -0.00534703489f,
  -0.0636323318f, -0.44211781f, -0.564204812f, -0.0936705172f, -0.646007538f, -0.781143427f, 0.00826093461f, -0.281790942f,
  -0.431355983f, 0.130512834f, -0.00918268599f, -0.0715114698f, 0.183860749f, 0.0438170433f, 0.0411507525f, 0.17301327f,
  0.0138480244f, 0.0175403226f, 0.125786096f, 0.000305731082f, -0.0206742883f, 0.0892557725f, 0.0293535292f, -0.0330841914f,
  -0.0387244858f, -0.0853764862f, -0.221097156f, -0.00490266364f, -0.0435576737f, -0.136536419f, -0.0610186756f, -0.13275817f,
  -0.101128109f, 0.0169791095f, -0.0410926268f, -0.0357114002f, 0.0883838162f, 0.0164973345f, -0.00505840313f, 0.0899885669f,
  0.0226586051f, 0.00284758909f, 0.0544096306f, -0.0314645953f, -0.00307153072f, 0.0833140835f, 0.0494775251f, 0.0100482255f,
  0.0187083315f, 0.0641833544f, -0.0472731031f, -0.0273584835f, 0.00473855948f, -0.0841152668f, 0.00831878558f, 0.0118661802f,
  -0.00733175175f, 0.0504570901f, -0.0210789852f, -0.00327012176f, 0.0501720756f, -0.0216954388f, -0.0426199958f, 0.0268960409f,
  -0.0312549695f, -0.0268951654f, 0.0134207299f, -0.0334794745f, 0.00112367189f, 0.0418099165f, 0.00147678331f, -0.00233308738f,
  0.0423403382f, 0.0116530871f, -0.0151054645f, 0.0035693408f, 0.0407886319f, -0.0582642779f, -0.0645493194f, 0.0019714334f,
  -0.0761018544f, -0.00471120933f, -0.0405389294f, -0.0652332455f, 0.0312682278f, -0.0094248727f, -0.0413356498f, 0.00334966974f,
  -0.0585600138f, -0.0493354052f, -0.0123244254f, -0.0365028493f, -0.033981014f, -0.0138403829f, -0.0410915203f, -0.0295234509f,
  0.0533655323f, 0.014965279f, 0.0124637783f, 0.0324245133f, -0.00845035817f, -0.0364086628f, 0.0420595296f, 0.0440605581f,
  -0.0579868481f, 0.0295183621f, -0.00537048932f, -0.047281947f, 0.038011387f, -0.0161319096f, -0.0424305648f, 0.0476953126f,
  -0.0141610857f, -0.0190364216f, 0.0168732628f, -0.00738789001f, -0.000811288599f, 0.0284456424f, -0.0121780634f, -0.0194345582f,
  -0.000180871692f, -0.0027283642f, 0.021206459f, 0.00488591194f, -0.0213762335f, 0.0258143581f, 0.0200714916f, -0.03761971f,
  -0.0242570508f, 0.0282017551f, 0.0209523961f, 0.0103896782f, -0.0246259794f, 0.0223021731f, 0.0164161585f, -0.0370672792f,
  -0.014191635f, -0.0260793082f, -0.0224366002f, -0.0266997069f, -0.0436734445f, -0.0646598712f, -0.011156193f, -0.0114655513f,
  -0.0562444031f, -0.0123269642f, 0.0205100048f, -0.00970561802f, 0.0139744235f, 0.0174614098f, 0.0064504547f, -0.018034555f,
  -0.0503639467f, -0.020404378f, -0.0119454674f, -0.0247161388f, -0.051240664f, 0.0188227985f, -0.0365519226f, -0.038528841f,
  0.0164637286f, -0.000980369747f, -0.0567422025f, -0.00952624157f, -0.00313216168f, -0.0529565215f, -0.0295614414f, -0.00675257202f,
  0.00489441352f, 0.0259485729f, 0.0209334455f, 0.0501472354f, 0.0601133779f, 0.0320059806f, 0.0357275419f, 0.0258668289f,
  0.0179612115f, 0.0118891709f, 0.025325343f, 0.00810403842f, 0.00927027501f, -0.00581529737f, 0.00820893608f, 0.064889133f,
  0.0408277102f, 0.00025635885f, 0.042800948f, 0.00731378933f, 0.00624786736f, 0.0269077681f, -0.018920945f, 0.00972519536f,
  -0.0200057738f, -0.0183116272f, 0.0120094586f, -0.0116640786f, 0.0106890984f, 0.042834051f, 0.00406732317f, 0.0288425833f,
  0.0447598211f, -0.0263869297f, -0.0192631707f, -0.00245493278f, 0.0255391393f, -0.0334517211f, 0.00933171064f, 0.0110025257f,
  -0.0358487815f, 0.0155527014f, 0.014049028f, -0.0239265226f, 0.0351558514f, -0.00440764101f, -0.0624339059f, 0.0397965685f,
  -0.0162365809f, -0.00844521262f, 0.0426726267f, 0.00784535054f, 0.0183980539f, 0.0262440741f, 0.0519899093f, 0.0180051476f,
  0.00639546057f, -0.0194101948f, -0.0272937343f, -0.0178737398f, 0.0362316146f, 0.00256702863f, 0.0195748359f, 0.0206287559f,
  0.019253429f, 0.00989168789f, 0.0390717834f, 0.0699122027f, 0.0445213318f, 0.0784717351f, 0.0450681746f, 0.0221528728f,
  -0.00392815098f, -0.000507766381f, 0.0218535997f, 0.0139867403f, 0.00225587096f, 0.0180059038f, -0.00932301953f, 0.00984715857f,
  0.0144205652f, -0.00886473712f, 0.0199714117f, 0.0119018834f, -0.0049722027f, -0.00189454714f, 0.0229968783f, 0.0284691919f,
  -0.0213012695f, 0.014565154f, -0.0166221168f, -0.041470997f, 0.00334932492f, -0.0223827958f, -0.0223334096f, -0.00977491401f,
  0.0175434053f, -0.017055925f, -0.00062397588f, -0.0239945501f, 0.00268885028f, 0.0198488049f, -0.0335208774f, -0.0157898106f,
  0.0141548663f, -0.0268513579f, -0.0414140746f, 0.012057798f, 0.0159054901f, -0.0373244062f, -0.0161717739f, 0.0117518194f,
  -0.0415335111f, -0.0290092975f, 0.0149200326f, -0.0248558391f, -0.00489258207f, -0.00858499296f, -0.034315154f, -0.00313343457f,
  0.0337193795f, -0.0328466929f, 0.0015830195f, -0.00337198796f, -0.0102341957f, 0.0100842463f, -0.0261433721f, 0.00195158646f,
  0.0386382639f, 0.00356768491f, 0.0159885827f, 0.0188531689f, 0.0102707967f, 0.011702667f, 0.0310643427f, -0.0190520864f,
  0.0164738372f, 0.00432797847f, 0.00877727382f, 0.0521685556f, 0.0118539948f, 0.0110534504f, 0.0109499311f, 0.0282215811f,
  0.0147957196f, -0.0371978991f, -0.00831225142f, 0.0712573677f, 0.0579142421f, -0.0199089237f, -0.00591055397f, 0.0226046834f,
  -0.0270653218f, -0.0474340916f, -0.0156660043f, -0.0343274735f, -0.0113454117f, -0.00819176435f, -0.0440254919f, 0.0113747725f,
  0.0036522632f, -0.00125391467f, 0.0329376608f, 0.0195284821f, 0.0137386043f, 0.0620361343f, 0.00543100573f, 0.00227281707f,
  0.06321612f, 0.0158278458f, 0.00352507876f, 0.0671287328f, 0.0364261791f, 0.0401711687f, 0.0262201857f, 0.0420018062f,
  0.0292391479f, 0.0227111317f, 0.0395757258f, 0.0380307585f, 0.02541993f, -0.00843322277f, 0.0292875282f, 0.117714114f,
  0.0342757478f, 0.00758824311f, 0.208080262f, 0.172555044f, 0.0579237044f, 0.0384333171f, -0.0152635807f, -0.0229847059f,
  0.0292495098f, 0.032222975f, 0.0133703658f, 0.00982445665f, 0.00151902437f, -0.020718459f, 0.0320800319f, -0.00573738199f,
  -0.0020835083f, 0.0600849167f, 0.0279224701f, -0.0074655842f, 0.0159610063f, 0.0336641707f, 0.00760009093f, 0.0190890152f,
  0.00491698412f, -0.0062481272f, 0.0253139772f, 0.017881237f, -0.0263099466f, 0.0295859072f, 0.0147097539f, -0.0291986819f,
  0.0224169437f, -0.0216612034f, -0.0230475143f, 0.0408577099f, 0.00697225705f, -0.0432021506f, -0.0131941075f, -0.0364926346f,
  -0.031552799f, -0.0198331829f, -0.0537525937f, 0.0157177374f, -0.0237683859f, -0.0237572789f, 0.0321097896f, -0.0292462707f,
  -0.0247217882f, 0.0296565369f, -0.0252804086f, 0.0353966244f, 0.0600369498f, -0.0237649456f, 0.00978470221f, 0.0222861525f,
  -0.00889092684f, -0.0241044164f, 0.0400394201f, 0.0514339097f, 0.0257300902f, 0.067518346f, 0.0169399846f, -0.02526002f,
  -0.00600136304f, 0.0426043719f, 0.01024005f, -0.012345409f, 0.000106936321f, 0.0250447765f, -0.0140944524f, 0.0102182124f,
  0.0457095504f, 0.00866093487f, 0.0232803822f, 0.0250529628f, -0.0424947962f, 0.0563587174f, 0.0239099357f, -0.0749311894f,
  0.00455805659f, -0.0115668941f, -0.0328240208f, 0.0212392583f, 0.0230964012f, -0.0504663549f, 0.0397942774f, 0.0395949557f,
  -0.101455696f, 0.000216294255f, 0.0244605578f, -0.0888874754f, 0.00534251984f, 0.038957689f, -0.0851761103f, -0.0313438065f,
  0.0101785418f, -0.100186966f, -0.061051704f, -0.0241401419f, -0.111753158f, -0.0278695915f, -0.0197233316f, -0.110548377f,
  -0.0126143731f, 0.013109507f, -0.0211042203f, -0.00312354486f, 0.0156260282f, -0.0494977981f, -0.057195656f, -0.026131697f,
  -0.0784852654f, -0.0412683822f, -0.0250968598f, -0.0650694594f, 0.0135918409f, 0.0149279898f, -0.0410140902f, 0.0131940888f,
  0.0281534046f, -0.030333139f, 0.082305871f, 0.0405602753f, -0.103523657f, 0.0679904297f, 0.0191302132f, -0.165406808f,
  0.075390175f, 0.0676470995f, -0.115584597f, 0.0191811491f, 0.0577925555f, -0.0719704702f, 0.0502635948f, 0.0653670356f,
  -0.0777600631f, 0.0536569729f, 0.0269971117f, -0.137306213f, 0.00889708567f, 0.0194972027f, -0.164114118f, 0.0452445373f,
  -0.0209756959f, -0.295028538f, 0.0774932951f, -0.0468157753f, -0.311234266f, 0.0774141476f, -0.0549471974f, -0.334839404f,
  0.0766861886f, -0.0315632671f, -0.318410635f, 0.0141565762f, -0.0773504972f, -0.334324986f, 0.0262169112f, -0.0899640992f,
  -0.403262377f, 0.0713191852f, -0.0796274319f, -0.475007713f, 0.0615330264f, -0.0495708697f, -0.448398501f, 0.0522294715f,
  -0.0414938964f, -0.479308158f, 0.0774014592f, -0.0750558972f, -0.590434432f, 0.0679652542f, -0.0582745373f, -0.578213453f,
  0.0457509831f, -0.0821894854f, -0.577299356f, 0.0410949178f, -0.0901060551f, -0.666911125f, -0.010697864f, -0.106370166f,
  -0.69470787f, -0.0254869387f, -0.134940714f, -0.673378348f, 0.05258682f, -0.0801713094f, -0.660817564f, 0.0234330818f,
  -0.014406452f, -0.63437283f, -0.0427382179f, -0.093119517f, -0.567199469f, 0.0342845991f, 0.055892624f, -0.377770483f,
  0.0348715968f, 0.100791276f, -0.456023306f, 0.0465470776f, 0.0557929575f, -0.435200989f, 0.0423363484f, 0.0735421851f,
  -0.358276159f, 0.0223865397f, 0.0967287645f, -0.286379904f, -0.000886810943f, 0.0613896251f, -0.298476696f, -0.0301840939f,
  0.060246706f, -0.281500936f, -0.0338237621f, 0.0497225337f, -0.272544116f, 0.0306879319f, 0.0754953697f, -0.300525665f,
  0.0677736178f, 0.0173462369f, -0.285892844f, 0.0065077506f, -0.0169426966f, -0.30508396f, -0.0226970334f, -0.00516375713f,
  -0.276984215f, 0.0160111114f, -0.0208073538f, -0.29313007f, 0.0136588067f, -0.0631399229f, -0.315562338f, 0.0196449831f,
  -0.0529818907f, -0.313912004f, 0.0249150805f, -0.0664163679f, -0.327240527f, -0.000440917443f, -0.0981588811f, -0.293807387f,
  -0.0063731987f, -0.10024114f, -0.330947489f, -0.0108748311f, -0.0888293982f, -0.345526457f, 0.0465639457f, -0.110080197f,
  -0.340187848f, 0.00775260851f, -0.180575207f, -0.334210336f, 0.0293131974f, -0.188656166f, -0.346870184f, 0.087270081f,
  -0.142305762f, -0.348562598f, 0.056902729f, -0.124947116f, -0.346799433f, 0.0443869308f, -0.179073691f, -0.331046194f,
  0.0597570613f, -0.140973628f, -0.308115691f, 0.0632618591f, -0.116090566f, -0.32643804f, 0.078614153f, -0.0825945437f,
  -0.335505992f, 0.0665619895f, -0.111239888f, -0.315224737f, 0.0866864845f, -0.0962549523f, -0.27638185f, 0.110307068f,
  -0.0361244977f, -0.22678256f, 0.0926932022f, -0.0568145439f, -0.274658799f, 0.094671987f, -0.0513730422f, -0.288502514f,
  0.066916801f, -0.0837359428f, -0.299369752f, 0.0652582347f, -0.0998170599f, -0.294586807f, 0.0377510786f, -0.147911996f,
  -0.310934544f, 0.0234891251f, -0.129926145f, -0.295349866f, 0.022610344f, -0.0704328269f, -0.25871551f, 0.0337462984f,
  -0.0639773607f, -0.269995183f, 0.0826538056f, -0.0702403709f, -0.306742132f, 0.0720579848f, -0.104386866f, -0.280425578f,
  0.0166624039f, -0.180826709f, -0.286779106f, 0.0130173992f, -0.184144884f, -0.265505999f, -0.000961189158f, -0.216538787f,
  -0.281989753f, -0.0133897755f, -0.154208541f, -0.290360987f, -0.0194980036f, -0.18020311f, -0.277769387f, -0.051238846f,
  -0.261234462f, -0.338161677f, -0.122296333f, -0.251052886f, -0.312882662f, -0.127979174f, -0.248817235f, -0.305486262f,
  -0.14610298f, -0.294347167f, -0.30491221f, -0.0810504705f, -0.311178088f, -0.317442834f, -0.03051861f, -0.238663301f,
  -0.296907425f, -0.000742415898f, -0.195799023f, -0.268281102f, 0.113377646f, -0.152482837f, -0.303673536f, 0.157969624f,
  -0.0704645813f, -0.338124365f, 0.196896344f, -0.0234828331f, -0.226964965f, 0.201058581f, 0.0276486631f, -0.187445328f,
  0.170637175f, -0.0184999704f, -0.217940912f, 0.190305337f, 0.00806874968f, -0.22169821f, 0.203590542f, 0.0517920293f,
  -0.189064518f, 0.17535606f, 0.0487827361f, -0.223843068f, 0.173328355f, 0.0661847442f, -0.237512007f, 0.126003176f,
  0.0460245162f, -0.188856348f, 0.121182941f, 0.138433442f, -0.262169003f, 0.263853014f, 0.265527904f, -0.344370782f,
  0.0166056864f, 0.0280238781f, 0.0288010351f, -0.0238228366f, -0.00966582727f, -0.104757354f, 0.0183392726f, 0.0884310231f,
  0.0187658425f, -0.0408358462f, -0.026844956f, -0.0460701212f, -0.00167273125f, -0.0726456344f, -0.0119820125f, 0.174650699f,
  0.0828351378f, 0.178486809f, 0.0359979458f, 0.0579291135f, 0.0425052643f, -0.484852016f, -0.325818062f, -0.469547272f,
  -0.0726420954f, -0.0372240618f, -0.0819355994f, 0.141700104f, 0.108193114f, 0.116503134f, 0.0151626943f, -0.0528183058f,
  -0.039320901f, 0.0957378596f, 0.0936187878f, 0.0541076213f, -0.0292957164f, -0.0455821641f, -0.0182870328f, -0.0414725207f,
  -0.04931942f, -0.0347348414f, 0.105093852f, 0.0853482485f, 0.10495998f, -0.0766700879f, -0.0874986947f, -0.0722376555f,
  -0.053956151f, -0.0336745456f, -0.0564144328f, 0.028602913f, 0.0802914053f, 0.0373330303f, -0.00509530678f, 0.0312351342f,
  -0.0180342216f, -0.00605823426f, 0.0208499935f, 0.0198212862f, -0.101390086f, -0.0566592142f, -0.00288823061f, -0.0266704727f,
  -0.0547052361f, -0.00601094775f, 0.0420546904f, 0.0775376707f, 0.0373141207f, 0.0817128494f, 0.14285256f, 0.0856662765f,
  -0.0642436147f, -0.0441834405f, -0.0735532939f, -0.150576144f, -0.158023193f, -0.109066233f, 0.0500401706f, 0.0193498153f,
  0.0515196584f, 0.141810209f, 0.0858370811f, 0.0431926996f, 0.076405108f, 0.0419591293f, 0.0165288821f, -0.0727205127f,
  -0.0605433509f, 0.00489381934f, -0.157721102f, -0.166184708f, -0.0470625013f, -0.0398134477f, -0.063770473f, -0.0459185541f,
  0.0986765921f, 0.0622495599f, 0.0481761992f, 0.0500009693f, 0.0201142989f, 0.0269275159f, 0.0408240482f, 0.00559436157f,
  0.00755468896f, -0.00984264538f, -0.0620193258f, -0.0389984846f, 0.033206176f, -0.059799619f, -0.0154612949f, 0.0550251342f,
  0.0332431719f, 0.0304228477f, 0.0103066191f, 0.0797259659f, 0.0398560353f, -0.0191094261f, -0.00621807203f, 0.013017836f,
  0.0602644794f, 0.0257993918f, 0.0550185814f, 0.053420417f, 0.0403521173f, 0.0538682118f, 0.0466365702f, 0.00459026359f,
  0.0613870919f, -0.0070945262f, 0.00141827855f, 0.0574207269f, 0.0111236824f, -0.0162011292f, 0.00792804733f, 0.0693189949f,
  0.021311136f, 0.0164341815f, 0.0161192901f, 0.00116472878f, 0.0423381329f, -0.0272716414f, -0.0127844298f, 0.0251870416f,
  0.00833362713f, 0.0121397618f, 0.0257342495f, 0.0525815114f, 0.0305418577f, -0.01119495f, 0.0821229964f, 0.0373697318f,
  0.00326674525f, 0.0119448416f, -0.0122449193f, 0.0104336478f, 0.0315352492f, 0.0734117776f, 0.0887612477f, 0.0117672458f,
  0.0409724042f, 0.0714078322f, -0.132002845f, -0.133529067f, -0.109880202f, -0.0733053833f, -0.103202999f, -0.112393007f,
  0.0177299809f, 0.023235701f, 0.0256431587f, 0.0136771817f, 0.0398825817f, 0.0509327613f, -0.0172401406f, -0.031016171f,
  -0.000689050881f, -0.00184022984f, -0.0140973134f, 0.0186423063f, -0.0176355112f, -0.0247333311f, -0.0743066669f, -0.00849662628f,
  0.0172488969f, -0.0340969935f, 0.0153808044f, 0.030799102f, 0.0112518147f, 0.0189963169f, 0.0179222878f, 0.0377768427f,
  0.035446085f, 0.0712722987f, 0.00371526182f, 0.0084234681f, 0.0217874106f, -0.0136343343f, -0.0100556705f, -0.0286729932f,
  -0.0484796688f, 0.0114473514f, -0.0247089379f, -0.0342086107f, 0.00481850188f, 0.0219230354f, -0.0233322643f, 0.0254813321f,
  0.00551216677f, -0.0233070329f, 0.0585714094f, 0.0323168151f, 0.0318040401f, 0.0124984328f, 0.000298122875f, 0.0217595622f,
  0.00650780601f, 0.00282503571f, -0.0184441265f, 0.0400352627f, 0.0984862745f, 0.0512175709f, 0.037266627f, 0.0676790923f,
  0.0627660304f, 0.0119717056f, 0.0294969995f, 0.0581511296f, -0.046305649f, -0.00328197936f, 0.0207617935f, -0.0226670597f,
  -0.01169057f, 0.013915929f, 0.0268329661f, 0.0556350686f, 0.0337997042f, 0.0669860169f, 0.0394020081f, 0.0439463556f,
  0.0636260659f, 0.023806151f, 0.0183797218f, 0.0401918441f, 0.0294654593f, 0.0356240012f, 0.00685779471f, 0.034446355f,
  0.0927038491f, -0.027700955f, 0.0452173278f, 0.0736855045f, 0.0563055575f, 0.0241155736f, 0.0522189736f, 0.00841511693f,
  0.00886042695f, 0.0555878505f, -0.0511033237f, -0.0117445346f, 0.032941401f, -0.0124138976f, 0.0251745358f, 0.0340462439f,
  -0.0207016896f, -0.000938095618f, 0.0233279634f, -0.000939523336f, -0.040594209f, 0.0106122121f, -0.0368409529f, 0.00363034033f,
  0.0151515268f, 0.00775381178f, 0.0610472336f, 0.0829636753f, 0.0075774854f, 0.0708501339f, 0.0977272242f, -0.0353241675f,
  0.0220002849f, 0.0622560866f, -0.0354413018f, -0.0195498616f, 0.0377747156f, 0.00553058274f, 0.0154930167f, 0.0352969579f,
  -0.0230478998f, 0.0439731367f, 0.0317185819f, -0.0269635525f, 0.0662158504f, 0.0473504029f, 0.0564860962f, 0.0282827653f,
  0.0037635318f, 0.0269867554f, -0.0345919468f, 0.0394004285f, -0.0194711387f, -0.0336048231f, 0.0518776812f, -0.0280000865f,
  -0.0349946618f, 0.031276159f, 0.0537118688f, 0.0390574113f, -0.00206926651f, 0.0466188528f, -0.0030949004f, -0.0426359475f,
  -0.0258337781f, 0.0126355635f, -0.0332503244f, 0.0157395024f, 0.0438601971f, -0.000713560963f, 0.0367451012f, 0.0696368665f,
  0.0427814089f, 0.0121432664f, 0.0343494192f, 0.0392427742f, -0.0125707276f, 0.0352593921f, 0.00740212854f, -0.00276831165f,
  0.00704541337f, 0.00299843773f, 0.0354580469f, 0.0221293159f, -0.0386215784f, -0.0111093447f, -0.0604022071f, -0.0354454033f,
  -0.0389820412f, -0.0619172901f, 0.0757222697f, 0.0517235771f, -0.000242218375f, 0.0985597298f, -0.0285230372f, -0.0557091907f,
  -0.00198265491f, 0.0140589448f, -0.0716974735f, -0.0237591863f, -0.00470311102f, -0.0884112418f, -0.0165548734f, -0.0278933849f,
  -0.0811116621f, 0.0159223713f, -0.0455134213f, -0.109807834f, 0.0149446568f, 0.00240943255f, -0.113745734f, -0.0672313869f,
  -0.000559685985f, -0.0473117083f, -0.0116023105f, -0.00292394171f, -0.072166197f, 0.0257713757f, 0.00242685108f, -0.0691316724f,
  0.00328804739f, 0.0636457056f, 0.0314174294f, 0.0451384857f, 0.0800753981f, 0.0398416929f, 0.0997286439f, 0.0822657123f,
  0.0555259846f, 0.0729779899f, 0.0598168969f, 0.052589342f, 0.0598360971f, 0.029990118f, -0.00320894527f, -0.00252389675f,
  0.033543162f, -0.0524920076f, -0.0108710732f, -0.0414540581f, 0.00420325622f, 0.00532949204f, 0.0590782464f, -0.0229397193f,
  -0.0169690009f, 0.016225256f, -0.00152973551f, 0.00115817203f, -0.0199813079f, 0.00685794465f, -0.023998037f, -0.0214035735f,
  0.02113159f, -0.013066791f, 0.00679159304f, 0.049998384f, 0.0010978335f, -0.0769144371f, -0.0194265582f, -0.0397679433f,
  0.108710147f, 0.040159218f, 0.0374467969f, -0.0188578609f, -0.00494633988f, -0.00427084602f, -0.051402472f, -0.00537077151f,
  -0.0822196454f, 0.0667611137f, 0.0381853506f, 0.0424496233f, -0.0220466573f, 0.0477733314f, 0.0657217652f, -0.20425266f,
  -0.095932655f, -0.169754952f, 0.0046752193f, 0.0670565292f, -0.0206126329f, 0.112352856f, 0.105444618f, 0.10978128f,
  0.10212864f, -0.0123964604f, 0.0338302925f, 0.154735327f, 0.101645105f, -0.0148702236f, -0.213073388f, -0.0791739896f,
  -0.277185708f, -0.43231535f, -0.333432496f, -0.528517127f, 0.0358365178f, -0.00744438171f, -0.0757994577f, 0.260437489f,
  0.168864161f, 0.249255627f, 0.275776803f, 0.194312304f, 0.291827291f, 0.0829725042f, 0.107707098f, 0.0411445722f,
  -0.147954315f, -0.116078563f, -0.297464222f, -0.255094528f, -0.403555334f, -0.464912564f, -0.0660159737f, -0.196873575f,
  -0.301251143f, 0.179770216f, 0.128643289f, 0.0947358012f, 0.164202169f, 0.166704535f, 0.267557025f, 0.0805082172f,
  0.12179172f, 0.233392954f, -0.0222591702f, 0.0616727285f, 0.123032391f, -0.163878277f, -0.0503225438f, -0.105603591f,
  -0.150944531f, -0.0428287201f, -0.104312688f, 0.0399362557f, 0.0999690592f, 0.0426907688f, 0.0314704105f, 0.0626082867f,
  -0.0190156456f, 0.0926368907f, 0.0478403121f, -0.0446722358f, 0.28993392f, 0.193082824f, 0.0998609811f, 0.122676246f,
  -0.00823877472f, -0.0746485591f, -0.229070887f, -0.262975782f, -0.40715301f, -0.33940345f, -0.378715098f, -0.463107973f,
  -0.0801795721f, -0.0351459719f, -0.137254775f, 0.299107343f, 0.370208204f, 0.235243887f, 0.0719827712f, 0.15910928f,
  0.0817479938f, -0.00680230744f, 0.157767937f, 0.0398099162f, -0.0613107421f, 0.102309451f, 0.0136510832f, -0.144669265f,
  -0.133811519f, -0.193007648f, -0.0532238781f, -0.212003618f, -0.175113842f, -0.104359195f, -0.294901431f, -0.247338489f,
  0.158864394f, 0.0276355799f, 0.0525788367f, 0.226971626f, 0.06024196f, 0.0934306979f, 0.26314193f, 0.109199807f,
  0.0521168113f, 0.222945541f, 0.149953619f, 0.0954753533f, -0.189150989f, -0.239098549f, -0.279010504f, -0.11738494f,
  -0.16709283f, -0.217575461f, 0.0557969511f, 0.052758079f, 0.0880880877f, -0.0372143127f, 0.0840551555f, 0.0407166891f,
  -0.104868099f, 0.110458717f, 0.0741835386f, 0.0287015215f, 0.195763737f, 0.109450459f, 0.0379495695f, 0.173859045f,
  0.0716469213f, -0.0525065213f, 0.0548048466f, -0.00988299306f, -0.157596052f, -0.0751833916f, -0.0206309836f, -0.160979196f,
  -0.00284679607f, 0.0249227658f, -0.168748215f, -0.0184829403f, -0.00256501627f, -0.108899556f, -0.0846058428f, -0.0482890457f,
  -0.00588317122f, 0.0167478137f, 0.0562124848f, 0.0819247663f, 0.158379465f, 0.178629324f, 0.127060965f, 0.234768361f,
  0.236604989f, 0.0117104733f, 0.0404274762f, 0.145796061f, -0.0849554464f, -0.0592591502f, 0.0454093441f, -0.21824275f,
  -0.230126441f, -0.0795013756f, -0.0921735466f, -0.188709691f, -0.0431512184f, 0.126717895f, 0.0678435266f, 0.11583373f,
  0.13214159f, 0.125289097f, 0.120627768f, 0.126153857f, 0.128885239f, 0.104783937f, 0.152197048f, 0.116365649f,
  0.0449358858f, 0.0961223319f, -0.0409904271f, -0.09115275f, 0.0792708844f, -0.196405366f, -0.172326669f, -0.0385892838f,
  -0.288421273f, -0.261615813f, -0.0915220901f, -0.376949936f, -0.318317741f, -0.0124337822f, -0.239679947f, -0.231330723f,
  0.1340051f, 0.00570136309f, 0.024497645f, 0.249634191f, 0.218156606f, 0.181075066f, 0.0405651815f, 0.00820240006f,
  0.0294662956f, -0.00732019264f, -0.0218681116f, 0.00811589696f, 0.00917781238f, 0.112743936f, 0.137246698f, 0.0166788958f,
  0.151088327f, 0.102894522f, 0.00934970751f, 0.146745846f, 0.104444429f, -0.0249491334f, 0.0703784749f, 0.0105291717f,
  -0.0954549611f, -0.0785282254f, -0.0864697769f, -0.102017514f, -0.121586218f, -0.113970816f, -0.0322534479f, -0.0907213986f,
  -0.112391695f, 0.11112716f, 0.114946708f, 0.0584627986f, 0.0558388159f, 0.0324398503f, -0.00677794311f, -0.0137257241f,
  -0.129243597f, -0.117413871f, -0.019964939f, -0.134523824f, -0.139670581f, -0.063330248f, -0.192144215f, -0.172915936f,
  -0.0740361586f, -0.121924914f, -0.0819941312f, 0.0563277341f, -0.0352294408f, 0.0382532701f, 0.0978237018f, 0.0946365744f,
  0.137986854f, 0.144400135f, 0.178597331f, 0.189268574f, 0.148715049f, 0.293616325f, 0.255435556f, 0.0807626247f,
  0.134042606f, 0.119668789f, -0.0845088661f, -0.197813928f, -0.164227858f, -0.115236863f, -0.237203181f, -0.27474001f,
  -0.059591461f, -0.185966343f, -0.162078261f, -0.0166665986f, -0.0381757207f, 0.00707398169f, 0.073450394f, 0.0671335086f,
  0.0462930389f, 0.0542229414f, 0.0988644436f, 0.0134533867f, -0.0626384318f, 0.0309203621f, -0.00936860219f, -0.0433307961f,
  0.0460780673f, -0.0192281343f, -0.0522790812f, -0.0267816596f, -0.0576510727f, -0.0387103111f, 0.00750391278f, -0.0160948392f,
  -0.0298368465f, -0.0200598836f, -0.0233791005f, 0.0632544756f, 0.147987232f, 0.0489107594f, 0.154282153f, 0.263881147f,
  0.174414605f, 0.0903903544f, 0.162527964f, 0.115711212f, 0.0608662367f, 0.0794069916f, 0.0190455914f, -0.0695931762f,
  -0.144088835f, -0.163849697f, -0.0765200332f, -0.198179305f, -0.191354677f, -0.01938303f, -0.166183442f, -0.171948686f,
  -0.0134036131f, -0.128126368f, -0.10460858f, -0.0855647624f, -0.102930345f, -0.0924403667f, -0.053715542f, -0.0836991519f,
  -0.0962625742f, -0.057067398f, -0.12037912f, -0.130590588f, -0.00921721943f, -0.0646216422f, -0.0553742908f, 0.00265554478f,
  -0.0259025898f, -0.0507999919f, 0.00951159652f, 0.00606610253f, -0.0103678275f, 0.0312700309f, -0.0473866984f, -0.0345270671f,
  0.148592994f, 0.191959411f, 0.11777848f, 0.237237841f, 0.294843912f, 0.172155336f, 0.0132798692f, 0.0368574932f,
  -0.0132499915f, -0.0169702061f, 0.0129492525f, -0.0157967657f, 0.00373846688f, 0.0417958722f, -0.00311043439f, -0.00170061179f,
  -0.00174481375f, 0.013327864f, -0.0188774522f, -0.025066847f, 0.0165948793f, 0.00483119301f, 0.0483684577f, -0.0187231489f,
  -0.0161424298f, -0.00626273826f, 0.00588729372f, 0.0225530472f, -0.0132353464f, 0.00745979557f, 0.0348607339f, -0.0334601253f,
  0.0217706785f, 0.0472130179f, -0.0832948759f, 0.0124487663f, 0.0700913146f, -0.0124999247f, 0.0358541235f, 0.0174091943f,
  -0.103234947f, -0.0263584796f, 0.104081027f, -0.0448603705f, 0.0387727544f, 0.0209774822f, -0.00740561634f, -0.0184397101f,
  0.0125528025f, -0.0137897478f, -0.048652526f, 0.0634759739f, 0.0452654734f, 0.00201898441f, 0.0543006249f, 0.0656410083f,
  -0.0463452339f, 0.0125435358f, -0.0644189343f, -0.0544947684f, 0.069032222f, 0.0699921474f, 0.0287646875f, 0.0680531114f,
  0.0542551801f, -0.0251190756f, 0.0139597757f, -0.0954838097f, -0.0648828745f, 0.112745583f, 0.0383177623f, 0.0194948912f,
  -0.0337941609f, -0.157229513f, -0.0883888304f, -0.00368373678f, -0.0624270365f, -0.0383769125f, 0.134679541f, 0.156214803f,
  0.0495166592f, 0.0614342578f, 0.0625894964f, -0.0291952565f, 0.00300877192f, -0.0337993652f, -0.110752136f, 0.0328853801f,
  -0.0916908681f, -0.106038786f, 0.115558945f, 0.0739309937f, 0.00287387474f, -0.045258604f, -0.00099702552f, -0.0579198599f,
  -0.025179483f, -0.05236274f, -0.148575708f, 0.0914013833f, 0.123373657f, 0.0724778175f, 0.162980258f, 0.173484325f,
  0.081386961f, -0.0124149509f, -0.124355726f, -0.0901589692f, -0.108591579f, -0.277534723f, -0.209114164f, -0.0612837151f,
  -0.0329233296f, -0.0721392483f, 0.0553197972f, 0.131798983f, 0.0090542715f, 0.0636972934f, 0.135349914f, -0.0282019041f,
  0.07780727f, 0.145890117f, -0.0028163814f, 0.0796347111f, 0.060198307f, -0.0180587862f, 0.0764234364f, 0.0918239802f,
  -0.0128677767f, 0.0191922039f, -0.145814061f, -0.0557388738f, 0.187037826f, -0.0861731544f, 0.046445597f, 0.0650355518f,
  -0.289662629f, -0.0855536684f, -0.140798867f, -0.70217979f, -0.235017583f, -0.0278811194f, -0.534944177f, -0.142758876f,
  0.142149463f, -0.102805614f, 0.0319572836f, 0.352592468f, 0.286171734f, 0.223416626f, 0.419288874f, 0.351724267f,
  0.242698818f, 0.283469468f, 0.163812146f, 0.13346085f, 0.178146452f, -0.151874259f, -0.0140187312f, -0.210657448f,
  -0.823020518f, -0.330485046f, -0.296709627f, -1.11378908f, -0.374271452f, -0.0346644819f, -0.551771045f, -0.0498344749f,
  0.252605796f, 0.0216441266f, 0.0907269418f, 0.40908581f, 0.30426091f, 0.213958681f, 0.469252288f, 0.377251327f,
  0.231217891f, 0.196495861f, -0.0124350842f, -0.0394660681f, -0.0563972369f, -0.622380495f, -0.220786199f, -0.159587204f,
  -0.814096093f, -0.292018861f, -0.149453878f, -0.611813307f, -0.311707377f, 0.0103538437f, -0.199082956f, -0.123111203f,
  0.196926236f, 0.344310641f, 0.0881231502f, 0.242757007f, 0.360023648f, 0.150299937f, 0.254995644f, 0.325740874f,
  0.176686227f, 0.207810223f, 0.223525822f, 0.130204812f, 0.0123095065f, -0.13303785f, 0.0480034351f, -0.155626431f,
  -0.622172475f, -0.0606729649f, -0.227883294f, -0.815244555f, -0.143846676f, -0.19671984f, -0.721314192f, -0.133659765f,
  -0.107909009f, -0.433850884f, -0.0621234626f, 0.0115771191f, -0.0955230445f, 0.0762854964f, 0.170573011f, 0.121641658f,
  0.167584985f, 0.226942912f, 0.302347481f, 0.221571714f, 0.136025757f, 0.218863264f, 0.128246382f, 0.00927769765f,
  0.119433075f, 0.0986498818f, -0.0208362751f, 0.0613287352f, 0.0210278928f, 0.133849457f, 0.0638068169f, 0.0287763812f,
  0.107420467f, -0.0631759167f, 0.110055514f, -0.00749710575f, -0.374737918f, 0.0498353764f, -0.0175633617f, -0.555490613f,
  -0.0191364959f, -0.0132308416f, -0.482639134f, -0.0569530241f, 0.083435908f, -0.482121676f, -0.0771225542f, 0.0463521928f,
  -0.64145124f, -0.0826075971f, 0.123486772f, -0.494291604f, -0.0354639105f, 0.144102857f, -0.404978931f, 0.108401313f,
  0.145559385f, -0.00227220356f, 0.144462869f, 0.223777622f, 0.019615002f, 0.199539125f, 0.213415533f, 0.0113047771f,
  0.178447098f, 0.109563693f, -0.125804156f, 0.10385634f, 0.103765428f, -0.107990839f, 0.0910448432f, 0.114760898f,
  -0.258292735f, -0.0141883083f, 0.192502216f, -0.175089672f, -0.0246380083f, 0.1927917f, -0.088218689f, 0.114612237f,
  0.290300727f, 0.0379018895f, 0.114497572f, 0.215721726f, -0.058859773f, 0.0385951996f, 0.21916829f, -0.136902079f,
  -0.0155615415f, 0.323665679f, -0.159158677f, 0.101102024f, 0.240014464f, -0.242107391f, 0.0687210932f, 0.193758085f,
  -0.308133245f, 0.0191624314f, 0.0378541015f, -0.581079721f, -0.0387631431f, -0.0757631958f, -0.660597324f, -0.0544609539f,
  -0.0527975112f, -0.663748622f, -0.0709427968f, 0.035493549f, -0.488880783f, -0.0656281263f, 0.0490383133f, -0.640987456f,
  -0.0284717456f, 0.175730571f, -0.437208235f, 0.0614489093f, 0.189853758f, -0.330633223f, 0.107025869f, 0.202944264f,
  -0.11361853f, 0.072495915f, 0.23527506f, 0.0281335972f, 0.110436469f, 0.28674373f, 0.0621775165f, 0.14407903f,
  0.210148573f, 0.118953913f, 0.160145193f, 0.175058618f, -0.00557036325f, 0.161826417f, 0.0842472911f, -0.249967843f,
  0.0452647917f, 0.0715642869f, -0.297672361f, 0.0129605085f, 0.18747589f, -0.266512871f, 0.0625259504f, 0.243719384f,
  -0.158574045f, 0.106538266f, 0.306230187f, 0.0878988653f, 0.211034998f, 0.229980066f, -0.0335986391f, 0.193483859f,
  0.300615788f, 0.00476649404f, 0.121650085f, 0.326612622f, -0.0496977381f, 0.150207207f, 0.195127159f, -0.237457246f,
  0.035650555f, 0.11868833f, -0.489171624f, -0.0409874544f, 0.132877007f, -0.34431529f, 0.0282282792f, 0.143114731f,
  -0.376815349f, 0.0763113573f, 0.156151265f, -0.336932302f, 0.119061299f, 0.174785018f, -0.15165481f, 0.0875360519f,
  0.0521269105f, -0.415715992f, 0.0137235066f, 0.0412643775f, -0.74409914f, -0.0846771896f, 0.0649217516f, -0.846284986f,
  -0.110589944f, 0.0773887932f, 0.000361640006f, -0.0171697512f, 0.0725465491f, -0.0504495837f, 0.0370418988f, 0.0953488797f,
  0.0410971679f, 0.0518844351f, 0.0398261249f, 0.0642048419f, -0.0313859023f, 0.135403737f, -0.0399183109f, -0.163976073f,
  0.154596731f, -0.0642060786f, -0.234551594f, 0.0354661122f, -0.0145676862f, -0.141559228f, 0.0182510652f, 0.0759721696f,
  -0.0873527899f, -0.00942916423f, 0.109120965f, -0.033810813f, -0.0388825722f, 0.0444789492f, 0.0125626959f, -0.00911972299f,
  0.0384950973f, -0.0213562343f, -0.0271971002f, 0.0282749776f, -0.171978384f, 0.00232901564f, 0.0613057688f, -0.166368693f,
  -0.0310903061f, -0.0380564407f, -0.0599117205f, 0.00874215551f, -0.0661823526f, 0.0499018952f, -0.0022302405f, -0.0350019895f,
  0.0884740353f, -0.0185149647f, 0.00274428912f, 0.0438943058f, 0.00628308393f, 0.0251992643f, -0.00650930125f, -0.00967916474f,
  0.0255959071f, -0.0449112915f, -0.0328868069f, 0.0299667828f, -0.0467411801f, 0.0124557614f, 0.0388153642f, -0.0102815032f,
  0.00826695748f, 0.0267860927f, -0.0336843096f, 0.0449420139f, 0.0384896435f, -0.0851935595f, 0.0408446118f, 0.00660355669f,
  -0.121902257f, 0.0149181094f, -0.0155145032f, -0.114738762f, -0.0136526665f, -0.0473838821f, -0.117387652f, -0.0149421114f,
  -0.024027586f, -0.0795471594f, 0.0158456452f, 0.0380423069f, -0.0627789125f, -0.0118697248f, 0.0327085741f, -0.0439445823f,
  -0.00563437631f, 0.00818653777f, -0.0201088153f, 0.0248288214f, 0.0371054411f, -0.0137337567f, 0.0119137382f, 0.0214849003f,
  -0.00791865587f, 0.0040102182f, -0.0410658754f, -0.0255733505f, 0.0549411327f, 0.00305175176f, 0.0382938348f, 0.0283948444f,
  -0.0184096806f, 0.00934754033f, 0.0504069254f, 0.0183376223f, 0.0229575448f, 0.0482174307f, -0.0111019583f, 0.0466392413f,
  0.0223276466f, 0.0074500367f, 0.0397172496f, 0.0785214528f, 0.0056257979f, 0.0439811312f, 0.040134877f, -0.0373255797f,
  0.0264955331f, 0.0303542558f, -0.0284184571f, 0.0581590943f, 0.0295758322f, -0.0201998856f, 0.0276885796f, 0.00246214308f,
  -0.00731105544f, 0.0385395512f, -0.0021912735f, -0.0307622906f, 0.0181318913f, -0.00267349463f, -0.0443121381f, -0.00488049025f,
  -0.00709145702f, -0.0334366336f, 0.0247431137f, 0.0221174862f, -0.0269451495f, 0.0302977078f, 0.0492116064f, 0.00115798868f,
  0.0645700544f, 0.0197455045f, 0.0175286736f, 0.0494648665f, -0.0318014324f, -0.0143914707f, -0.002932915f, -0.0211544596f,
  -0.0811882541f, -0.0172571559f, 0.0157915279f, -0.0179990083f, 0.00986210071f, 0.0209055971f, -0.0492122211f, -0.0341144875f,
  0.0333848149f, -0.0409593247f, 0.0334302709f, -0.00866724364f, -0.0325582512f, 0.0161762089f, 0.0314940102f, 0.0135520659f,
  0.022400979f, 0.0579357147f, 0.0199701432f, 0.0506574512f, -0.000413946807f, -0.0270716362f, 0.00644089794f, -0.030037323f,
  -0.0541580468f, -0.0245291255f, 0.0139329592f, -0.0291288011f, -0.0148371933f, 0.0363943651f, -0.0369500704f, 0.00828841235f,
  0.0471998267f, 0.0133105982f, 0.00784461107f, 0.00571110519f, -0.013626257f, 0.0114447093f, 0.0176047105f, -0.0201147236f,
  0.0166247152f, 0.0633137226f, 0.000469756895f, 0.0455231443f, 0.00512553379f, -0.00894615147f, -0.00543791242f, 0.00784724299f,
  0.00838007778f, 0.0345617309f, 0.0501723737f, 0.0192088131f, 0.0387562551f, 0.0595415905f, 0.00914697722f, 0.0327981859f,
  0.0027874615f, -0.0119444486f, 0.0139646679f, 0.0229808576f, 0.012223565f, -0.00498928502f, 0.0535858199f, 0.030129021f,
  0.0531923994f, 0.0103210649f, 0.025077343f, 0.0263417438f, 0.0306527987f, 0.0234476142f, 0.00403960468f, 0.0282579735f,
  0.0495649017f, 0.0298801418f, 0.0515910834f, 0.0826053619f, 0.0546196625f, 0.0639174357f, 0.0755211785f, 0.0628664568f,
  0.0346261598f, 0.0484107621f, 0.0232575964f, -0.0285854209f, 0.0138370972f, 0.00580647774f, -0.0236489251f, 0.0130404951f,
  -0.00455549639f, -0.00895020552f, 0.0154979331f, 0.044081986f, -0.0541759282f, 0.0543655194f, 0.0365195908f, -0.0406295992f,
  0.0432818905f, 0.0371051691f, -0.0897846147f, 0.0158620141f, 0.0226398855f, -0.031665843f, 0.0657493472f, 0.0500344709f,
  -0.0662266612f, 0.0837194547f, 0.0784197599f, -0.0814695805f, 0.0525159463f, 0.102539346f, -0.0408373401f, 0.0452806465f,
  0.0764927343f, -0.0530006997f, 0.0191184599f, 0.0470760092f, -0.0618004054f, -9.97532625e-05f, 0.0550219938f, -0.0567322969f,
  0.0140284207f, 0.0516141988f, -0.129984185f, 0.0626111776f, 0.0436953679f, -0.121461101f, 0.0345930904f, 0.0487816259f,
  -0.0939562693f, 0.00624196976f, 0.04512918f, -0.0985655934f, -0.0210195053f, 0.0679362044f, -0.14976418f, 0.0121184383f,
  0.0870267749f, -0.178394005f, -0.0151005965f, 0.062918134f, -0.14262788f, -0.0263060275f, 0.0349364728f, -0.156029537f,
  0.031580016f, 0.0320866369f, -0.152236715f, -0.00560397748f, 0.0167703666f, -0.124120392f, -0.0402133241f, 0.0313594118f,
  -0.179477811f, -0.0102715883f, 0.0448638462f, -0.136341855f, 0.0116907042f, 0.045560427f, -0.128017321f, -0.0317800082f,
  0.0435198992f, -0.152592003f, -0.0555122197f, 0.0384143926f, -0.154554963f, -0.0215084851f, 0.039757058f, -0.161754251f,
  0.0157604553f, 0.00883517228f, -0.12719065f, 0.037871711f, 0.0582172498f, -0.138708219f, 0.0526891872f, 0.0701437816f,
  -0.105750524f, -0.000328482129f, 0.0203404222f, -0.137401074f, 0.0125140008f, 0.0221857969f, -0.0949106216f, -0.0186902843f,
  0.0301010832f, -0.0748436004f, -0.023655748f, 0.0461473763f, -0.115075275f, -0.00208288711f, 0.0228781793f, -0.0999662727f,
  -0.0247271489f, 0.0364040285f, -0.0967909917f, 0.0279892217f, 0.0509328805f, -0.100439832f, 0.0417460315f, 0.0204779245f,
  -0.108872741f, 0.0645768493f, 0.0830180123f, -0.150501564f, 0.10281311f, 0.0878520757f, -0.133697435f, 0.119341135f,
  0.0923551321f, -0.189227328f, 0.104301453f, 0.0954143554f, -0.224382013f, 0.0864632875f, 0.07247141f, -0.373941422f,
  0.0156215895f, 0.0228118468f, -0.434840441f, -0.0893007591f, -0.0485809147f, -0.55867666f, -0.140903756f, -0.143415749f,
  -0.60638231f, -0.208521187f, -0.237362027f, -0.605592489f, -0.251496524f, -0.244737536f, -0.548594952f, -0.223625898f,
  -0.255519331f, -0.509182453f, -0.175274163f, -0.2602548f, -0.0221275203f, -0.0241352338f, -0.0179288834f, 0.00717594009f,
  0.0421731807f, 0.0161736906f, 0.0166702233f, 0.023792332f, 0.015943991f, 0.00517694606f, 0.0142523311f, 0.0157666281f,
  0.015681982f, 0.0314287543f, 0.00154736266f, 0.00229414552f, -0.00904629845f, -0.0213414878f, -0.0066827992f, 0.026060544f,
  -0.0205288101f, -0.0173346251f, 0.00521200942f, -0.0157527141f, 0.00777447084f, 0.00223716372f, -0.0198921189f, 0.02123015f,
  0.0157016609f, -0.0176557451f, -1.09531684e-05f, 0.0420862064f, 0.0364421271f, -0.077121824f, -0.0059662303f, 0.0526917018f,
  -0.121146426f, -0.0625262707f, 0.0522743985f, -0.166149467f, -0.15889369f, -0.0574740283f, -0.194497257f, -0.145490095f,
  -0.0449623317f, -0.195436895f, -0.0597284324f, 0.0266521573f, -0.225504383f, -0.0226205625f, 0.0167439543f, -0.230408847f,
  -0.120922863f, -0.0496262573f, -0.243854612f, -0.124903522f, -0.0641296804f, -0.272617936f, -0.0768334568f, -0.0539688841f,
  -0.250259876f, -0.0838404149f, -0.0361382328f, -0.288897306f, -0.167850792f, -0.0739618912f, -0.203544825f, -0.106976271f,
  -0.0422146991f, -0.118351512f, -0.020165097f, 0.0186520815f, -0.0658890978f, 0.00451536383f, 0.0206647106f, -0.0650137439f,
  -0.0348457992f, -0.0243921392f, -0.05855304f, -0.015329537f, -0.0356646888f, -0.0516825654f, 0.0393915325f, -0.0156603307f,
  -0.0836292952f, 0.00810426101f, -0.00875970721f, -0.0332451873f, 0.023586506f, 0.0139490897f, -0.0144193182f, 0.061383035f,
  0.011538147f, -0.0183721222f, 0.0365815535f, 0.0106393704f, -0.037122868f, 0.0328919403f, 0.0221528169f, -0.0481941365f,
  0.0348144956f, -0.00706853718f, -0.0258256122f, 0.0401818156f, 0.0103251692f, -0.00516337715f, 0.0340565816f, 0.0157746989f,
  -0.00834691338f, 0.0394753031f, 0.00699818274f, -0.045095209f, -0.00394689385f, -0.0303435232f, -0.020197574f, 0.0369263999f,
  -4.50204825e-05f, 0.00823606364f, 0.0488752574f, 0.0308960471f, -0.00743987551f, 0.0305635594f, 0.0108511448f, -0.0122076748f,
  0.0115385195f, -0.013101086f, -0.00227025081f, 0.00953648984f, -0.00525646517f, -0.00668465067f, 0.0166812707f, -0.0214864798f,
  0.00912190415f, 0.0593728423f, 0.00724149961f, 0.0129644368f, 0.0468328297f, 0.0245667193f, 0.00833156984f, 0.0323523581f,
  0.0132722855f, -0.00634550769f, 0.015823245f, 0.0118996203f, -0.0110177528f, 0.0130491834f, 0.00307445228f, -0.0210143402f,
  0.017486386f, 0.0195748135f, -0.0192645844f, 0.0331047922f, 0.0325350501f, 0.00671127252f, 0.0386007428f, 0.0183294192f,
  -0.034441039f, -0.00923969969f, -0.0150929829f, -0.0181033742f, 0.00945883058f, 0.0215865895f, -0.0203618612f, 0.0278698392f,
  0.030552391f, -0.0346750654f, 0.00462368876f, 0.0235412046f, -0.0220152251f, 0.0056252284f, 0.010631131f, -0.0253289472f,
  0.00991479494f, 0.00668669026f, -0.0468504131f, 0.00224944018f, 0.0253188033f, -0.0292566214f, 0.03037576f, 0.057480067f,
  -0.0283937193f, 0.00144294603f, 0.0220432058f, -0.0284897573f, 0.0162898004f, -0.00750383642f, -0.0314028487f, 0.0177274588f,
  0.0129175894f, -0.0310122259f, 0.00785296876f, 0.0140128788f, -0.0256577786f, 0.018770922f, 0.0179032348f, -0.0373841636f,
  0.00509710051f, 0.00875118747f, -0.0352702364f, -0.000799996778f, 0.0150523288f, -0.0357351452f, 0.00645427499f, 0.0159028284f,
  -0.0257921703f, -0.00646988256f, 0.0206934996f, -0.0227382481f, 0.00960291177f, 0.0192886386f, -0.0160188805f, 0.0190337226f,
  0.0357028209f, -0.0213374477f, -0.00314352475f, 0.016471481f, -0.00697284751f, -0.0150004625f, 0.00654903846f, 0.0111575704f,
  -0.0168509688f, 0.0058587091f, 0.0013312446f, 0.000582044944f, 0.00532339141f, -0.0362375304f, -0.0255896933f, 0.0241371728f,
  -0.010940345f, 0.00668028463f, 0.0344710536f, 0.00783962011f, 0.0169860274f, 0.0191844832f, -0.0147080496f, 0.00121629052f,
  0.0141901355f, -0.00496454211f, 0.00336659513f, 0.0215578247f, -0.00204926054f, -0.0265244171f, 0.0551333129f, 0.0099080177f,
  -0.00279897545f, 0.0418079458f, -0.0162449162f, -0.0312931463f, 0.0294047911f, -0.00454795174f, -0.00498434808f, 0.053791821f,
  0.0104584647f, -0.00492285145f, 0.0581758097f, -0.00592030212f, 0.0134054255f, 0.0452577509f, 0.017707793f, 0.0330768228f,
  0.0804280266f, 0.00807996653f, -0.00718399696f, 0.0527958423f, -0.011173645f, -0.0312917419f, 0.0384074263f, -0.0158365443f,
  -0.0162873492f, 0.0738773495f, -0.0281278528f, -0.00114693679f, 0.0686590821f, -0.0208068099f, -0.0263400935f, 0.0477044992f,
  0.00189025211f, -0.0604827628f, 0.0279115103f, 0.0209050067f, -0.0123147601f, 0.0286190622f, -0.000819771842f, -0.0350722447f,
  0.0305358525f, -0.0202809721f, -0.0445215143f, 0.0311705749f, -0.0124996724f, -0.0265473537f, 0.0390209518f, 0.0122486753f,
  -0.0228169933f, 0.0484171249f, -0.0130179496f, -0.0565022118f, 0.0215593055f, -0.0171164945f, -0.0549602732f, 0.0209055766f,
  0.0347328559f, -0.0465948321f, 0.0206410922f, 0.0294043701f, -0.0546464659f, 0.0336870551f, 0.030630935f, -0.0476567671f,
  0.00655727647f, 0.0187136233f, -0.0358984768f, 0.0139870774f, 0.0211895332f, -0.0449810103f, -0.00445673987f, 0.00990666728f,
  -0.0509734899f, -0.0147092007f, 0.00916226301f, -0.0808196589f, -0.0237995237f, 0.0272548553f, -0.0924253315f, -0.0189375095f,
  0.0150669375f, -0.1049698f, -0.0272561088f, -0.000639703416f, -0.119669929f, -0.0244352352f, 0.0263063572f, -0.0786307156f,
  -0.00157777825f, 0.0234683678f, -0.0811095685f, 0.0177216008f, 0.0201807767f, -0.0957241207f, -0.0146152852f, 0.035671562f,
  -0.145198196f, -0.0694957003f, 0.0456510559f, -0.1505858f, -0.0489338115f, 0.0197632369f, -0.129601359f, -0.0143556837f,
  0.0248285085f, -0.112477943f, -0.00095852185f, 0.0654803291f, -0.0509657338f, 0.0657537282f, 0.0502318628f, -0.0381435752f,
  0.0883029923f, 0.0289476626f, -0.0733414292f, 0.0477482267f, 0.0253382176f, -0.126165837f, 0.0365128629f, 0.0218302347f,
  -0.126795575f, 0.0185821429f, 0.0150245316f, -0.124920338f, 0.0627916679f, -0.016678853f, -0.110269792f, 0.0301921293f,
  -0.0173052512f, -0.0923557878f, 0.0361398011f, -0.00755086774f, -0.0367926992f, 0.0808435604f, -0.013584407f, -0.050148312f,
  0.0635697544f, -0.0431361832f, -0.0370394811f, 0.0689223334f, -0.0384769738f, 0.0112012923f, 0.110958323f, 0.0106062116f,
  -0.0188104529f, 0.0565939695f, 0.0176225901f, -0.0762102082f, 0.0581439249f, -0.0145268422f, -0.0128744924f, 0.0534739308f,
  0.0396729112f, 0.0762177184f, 0.0736227557f, 0.0226461235f, -0.0277128983f, -0.0790480375f, -0.033792194f, -0.18197009f,
  -0.388577402f, -0.0350663178f, -0.171287969f, -0.399240315f, 0.00535630202f, -0.0421314016f, -0.132706493f, 0.0507956855f,
  0.0645985976f, 0.0582262948f, 0.0242392253f, 0.0352157429f, 0.0267251171f, -0.00258761831f, 0.0187400803f, -0.00201500393f,
  0.0255371593f, 0.0991031229f, -0.017810639f, 0.0330112316f, 0.0721103922f, -0.0718077421f, 0.086465627f, 0.119234517f,
  -0.108568914f, 0.0724954382f, 0.0923473611f, -0.0833345354f, 0.0895173177f, 0.0932310075f, -0.0759931952f, 0.0548059158f,
  0.0747934431f, -0.0856336728f, 0.0541637763f, 0.069070749f, -0.126098722f, 0.0539934263f, 0.0515223108f, -0.157015488f,
  0.0409530289f, 0.0232819282f, -0.134906545f, 0.043085441f, 0.0412497893f, -0.209713206f, 0.0145910261f, 0.0569787472f,
  -0.21495232f, -0.0012538447f, 0.0597453192f, -0.242382362f, -0.0246802159f, 0.071842514f, -0.226359844f, 0.0206681956f,
  0.0615625791f, -0.165057153f, -0.0127170207f, 0.0840151235f, -0.135763332f, 0.000190726249f, 0.086261183f, -0.113406114f,
  0.0305195712f, 0.0820393488f, -0.0796473771f, 0.000351724913f, 0.0361107998f, -0.14427419f, 0.0416956879f, -0.0109088775f,
  -0.143593937f, 0.0665945709f, 0.0190348867f, -0.0824005157f, 0.0523781478f, 0.00457464065f, -0.0691090897f, 0.0683174208f,
  0.0295459572f, -0.0609372891f, 0.0441038087f, 0.0524395965f, -0.076400876f, 0.0257513933f, 0.0158110391f, -0.120127134f,
  -0.00927642826f, -0.0785769373f, -0.126492187f, -0.0209163111f, -0.0778304711f, -0.117865361f, -0.0227543451f, -0.070065558f,
  -0.161454439f, 0.00320814177f, -0.0064768875f, -0.104108408f, 0.00160034711f, -0.00499501685f, -0.0452637225f, -0.00243132818f,
  -0.0515338443f, -0.0836029202f, 0.0140491435f, -0.0480300188f, -0.0913827866f, -0.00794440974f, -0.0577755161f, -0.0473981723f,
  -0.000725236721f, -0.0788003132f, 0.0431473069f, 0.0237660985f, -0.0679203197f, 0.0434914827f, 0.0157103613f, -0.0257242247f,
  0.0519354343f, 0.0203305203f, -0.0520617589f, 0.03111149f, 0.0295326449f, -0.0478569828f, 0.0116529614f, 0.0428000651f,
  -0.031825684f, 0.0134590752f, 0.0462539718f, 0.0116591677f, 0.020678103f, 0.0422347039f, -0.0150784831f, 0.00637685414f,
  0.053635288f, -0.0211993475f, 0.0129943117f, 0.0500411317f, -0.0237996224f, 0.0138354776f, 0.0229640398f, -0.0882323757f,
  -0.00746273063f, 0.0473466478f, -0.0376149043f, 0.0254765265f, 0.0463268012f, -0.00526242703f, 0.0453638881f, 0.0508574247f,
  -0.0549499765f, 0.0260919668f, 0.056933634f, -0.0302302428f, 0.0597874373f, 0.0190021172f, -0.0570296869f, 0.0796379149f,
  0.0304968972f, -0.0433643572f, 0.0705760568f, 0.090141952f, 0.00220311852f, 0.0883896872f, 0.103307821f, -0.0374911055f,
  0.0753395334f, 0.0686656684f, -0.00772009837f, 0.0640819743f, 0.0366086923f, 0.0130048152f, 0.0545109063f, 0.0343378782f,
  -0.02386746f, 0.0036299373f, 0.0127524519f, -0.063640058f, 0.00661223941f, 0.029959226f, -0.0600995868f, -0.035624072f,
  0.0215939451f, -0.0724959075f, -0.0100816227f, 0.024532143f, -0.0744046792f, -0.0137367053f, 0.00550676789f, -0.0822410285f,
  -0.0163293928f, -0.0115100276f, -0.0829312801f, -0.0102438554f, -0.00563872512f, -0.0861853063f, -0.0469310507f, -0.0121333525f,
  -0.118333787f, -0.046295803f, -0.00925255008f, -0.0344213024f, 0.0149692986f, 0.0241149329f, -0.0373861752f, -0.0118060969f,
  0.0368079059f, -0.0637011603f, -0.0213298351f, 0.0312901959f, -0.00966702215f, 0.0178785603f, 0.0530292429f, -0.0209086202f,
  -0.0115274359f, 0.0764202178f, -0.0162260961f, -0.0123216752f, 0.0724693239f, -0.0121190473f, 0.00801049918f, 0.0660968199f,
  -0.00873405021f, 0.0452051014f, 0.0361115076f, 0.00371965021f, 0.00273009879f, 0.0610137507f, 0.0238642581f, 0.00880384352f,
  0.0442019589f, -0.0209823549f, -0.00996907428f, 0.0264906548f, -0.0109019373f, -0.00512436964f, 0.0440624729f, -0.027863171f,
  -0.00264609465f, 0.0905396715f, -0.00553621445f, 0.00502911396f, 0.112752914f, 0.00512093212f, 0.0133513175f, 0.112797543f,
  -0.0101039354f, 0.0382160991f, 0.125813574f, -0.0276124515f, 0.00434429757f, 0.0728893802f, -0.013321029f, 0.0311079882f,
  0.108038627f, -0.0162851755f, 0.0125168525f, 0.0905449688f, -0.0407939777f, 0.00848063547f, 0.0910445303f, -0.0239501465f,
  -0.0157569982f, 0.0667786151f, 0.00660298578f, -0.0346591994f, 0.0373801515f, -0.0136788357f, -0.0148994094f, 0.027141789f,
  -0.0271908343f, 0.0191495679f, 0.0253829304f, -0.000292554963f, 0.0276297703f, 0.0646903515f, 0.00389861222f, 0.0327271149f,
  0.0780438036f, -0.00337706506f, 0.0230063722f, 0.0532269888f, -0.00175069412f, 0.0150825866f, 0.049923934f, -0.0289150737f,
  0.0064779087f, 0.0443711393f, -0.0313523225f, 4.4564571e-05f, 0.0484399498f, -0.010778904f, 0.0440407954f, 0.0399826877f,
  -0.00707146199f, 0.0599713624f, 0.0678981245f, 0.00351803564f, 0.0569789074f, 0.053898301f, -0.0491302572f, 0.0410925858f,
  0.0594497733f, 0.00424165837f, -0.00248973281f, 0.0219318271f, 0.0218073763f, 0.0123024993f, 0.0192815084f, -0.00373460934f,
  0.0240391567f, 0.0554720685f, 0.0157037321f, 0.0204263441f, 0.0424079187f, 0.00530541642f, 0.00252422807f, 0.0475008227f,
  -0.0258467924f, 0.0287375487f, 0.0263016243f, -0.00123505981f, 0.0228748471f, 0.0339293852f, 0.00569745619f, 0.042839855f,
  0.0306425467f, -0.0250518955f, 0.0305723213f, 0.0202847421f, -0.0147879068f, 0.00929475389f, 0.0493251272f, 0.01218291f,
  0.0159059279f, 0.0547860153f, -0.00407185918f, -0.00370513834f, 0.0302455816f, 0.00370484777f, 0.0241307225f, 0.0325325355f,
  0.0244470909f, 0.0374333337f, -0.0124770459f, 0.0421864204f, 0.0107959695f, -0.0184761304f, -0.0254614055f, 0.0156823099f,
  0.0219687149f, 0.0318604894f, 0.0149646373f, 0.0110570872f, 0.0261566993f, -0.0204095878f, -0.00827376731f, 0.00279174326f,
  -0.049632512f, -0.0147046912f, 0.0264090262f, -0.0272557065f, -0.0227861963f, -0.0343287289f, -0.0194519218f, -0.00401856378f,
  -0.0699563399f, -0.0673766956f, 0.199398816f, -0.667514682f, -0.991910279f, 0.326767117f, -1.02798557f, -1.44863725f,
  0.283773959f, -0.0453810319f, -0.273764133f, 0.179044455f, 0.102697052f, -0.0527791604f, 0.0549761988f, -0.0184142329f,
  -0.00758804567f, -0.00534454547f, 0.0423427336f, -0.0013214536f, 0.0227565914f, 0.0498401076f, -0.00497634104f, -0.0033338787f,
  0.0251884479f, -0.00657888642f, -0.00438949279f, 0.0421309993f, -0.0126977731f, 0.0346179828f, 0.0193070285f, 0.000584221096f,
  -0.0343957283f, 0.0384318754f, 0.00219860347f, 0.00698320102f, 0.0105999438f, 0.0150176324f, 0.0340800248f, -0.0100096883f,
  0.0136994291f, 0.0153817432f, 0.0242270175f, 0.00655561872f, -0.0386543721f, 0.0214856789f, -0.0348272473f, 0.0262029171f,
  0.00803926867f, 0.00240768283f, -0.00486949738f, 0.0193673782f, -0.00251253718f, 0.035036955f, -0.000663559244f, 0.00412776694f,
  0.018435197f, 0.00714305602f, 0.00121058349f, -0.0134240063f, -0.00301269442f, 0.0335804187f, 0.0470415987f, -0.00524709001f,
  0.00220613042f, 0.0511211231f, 0.0366056114f, -0.0102466065f, -0.0277345516f, 0.00797477551f, -0.0114299152f, 0.0671292841f,
  0.0104925539f, -0.00235133385f, 0.0742785186f, -0.00171955442f, 0.000524316216f, 0.0528200343f, 0.00207817741f, -0.00171069033f,
  0.0116533134f, -0.00694270525f, 0.0131890997f, 0.0220205523f, 0.00343322288f, -0.0239134859f, -0.0174058657f, 0.0422855392f,
  0.0104418527f, -0.0129009634f, 0.0338876881f, 0.0103695504f, 0.0109889274f, 0.0120409103f, -0.00345307891f, 0.00179627258f,
  0.0141116055f, 0.0140633313f, 0.00177188055f, 0.012774732f, -0.0122058634f, -0.0367033035f, 0.0365149342f, -0.019326482f,
  0.0170046575f, -0.00946629792f, 0.00746733695f, 0.0307997763f, -0.0116842333f, 0.00719643943f, -0.0317231975f, 0.0376786366f,
  -0.0324012898f, 0.0100861192f, 0.00212423783f, -0.0146652777f, 0.0340675525f, 0.0377498902f, -0.010336129f, 0.00659865094f,
  -0.0180372186f, -0.00692609092f, 0.0172458421f, 0.0522465594f, 0.0184605438f, -0.0389759131f, -0.00955982879f, -0.0424719192f,
  0.0524794199f, 0.0425521247f, 0.00897761434f, -0.0124839768f, -0.0228983946f, -0.0041753524f, 0.0602080375f, 0.029310368f,
  -0.0365028754f, 0.0697014183f, 0.0303315073f, -0.01018258f, 0.0110726515f, -0.0170171428f, 0.0178631861f, 0.0281282812f,
  0.038492851f, 0.0268726666f, -0.0132725062f, 0.00476472545f, 0.0102586485f, -0.0291617885f, -0.0395978652f, -0.0189088732f,
  0.039310962f, -0.0116308574f, -0.0250810049f, -0.0133438427f, -0.00481557474f, -0.0162681155f, -0.00333056599f, -0.0295610409f,
  -0.00218206877f, 0.0338630043f, -0.0165748037f, 0.0237095635f, 0.0452354737f, 0.00425256649f, -0.0218247809f, 0.000234249048f,
  0.00625136308f, -0.0184180047f, 0.010124783f, 0.0244953223f, 0.0329235047f, 0.0520546883f, 0.0285191145f, 0.00208880147f,
  0.0145584987f, 0.0213397928f, -0.028640449f, 0.0436993688f, 0.00610693358f, 0.00020400295f, 0.0239394624f, 0.00241609081f,
  -0.0116583612f, -0.0122745363f, -0.0404104143f, 0.0155465789f, -0.00466714241f, -0.0137223667f, 0.00853029359f, 0.100176647f,
  -0.00665125903f, -0.0544533134f, 0.114743978f, -0.0148155373f, -0.00638279691f, 0.107679918f, -0.00267609861f, -0.0161921792f,
  0.0251848325f, -0.0246603601f, 0.0308055133f, 0.0300291348f, 0.00126855075f, 0.018282637f, 0.00555417314f, 0.030260412f,
  0.0161890723f, -0.0199476816f, -0.0206316672f, 0.0304935686f, 0.0147301778f, -0.046281904f, -0.0068909335f, 0.061859943f,
  0.0646568909f, -0.00187859265f, -0.0318226367f, 0.00166535028f, -0.0102644321f, -0.011480717f, 0.0134545993f, -0.0160131492f,
  0.00703811133f, 0.019245686f, 0.0138027016f, 0.0283572655f, -0.0256308876f, 0.0067358478f, 0.0249130242f, -0.0419465341f,
  0.0163204949f, 0.0473562181f, -0.0704673454f, 0.0197237525f, 0.0341204107f, -0.00521950517f, 0.0148431528f, 0.069080621f,
  -0.0188813377f, 0.0210568309f, 0.0833168849f, 0.0192098841f, -0.0137612857f, 0.0538554341f, -0.0626263395f, -0.0105851693f,
  -0.00653444603f, -0.0684110969f, -0.0154755088f, -0.0196051449f, -0.0188947245f, 0.00773872808f, 0.0324962176f, 0.00153472833f,
  0.00404246617f, 0.0856742635f, 0.0348996781f, -0.0356215201f, 0.000766313169f, -0.0607762448f, -0.00284666335f, 0.00330785476f,
  -0.02888887f, 0.0179606676f, 0.0346680284f, -0.00737406826f, -0.0548599809f, 0.0355144069f, -0.0382260866f, -0.0197149385f,
  -0.023654189f, -0.037382409f, 0.0106340367f, -0.00189119892f, -0.0256832279f, 0.0419504642f, 0.00433529308f, 0.00518093118f,
  0.0201169513f, 0.0673999339f, 0.0278041121f, -0.0092480164f, 0.054955624f, 0.00794383045f, -0.0232456438f, 0.0645918995f,
  0.00842552632f, 0.0245207772f, 0.0275252853f, -0.0665778369f, 0.0979949683f, 0.0279310774f, 0.0310747549f, 0.0211631805f,
  -0.0226745158f, 0.0100236842f, -0.0571129024f, 0.0678444877f, 0.045861356f, -0.0147888046f, 0.0502340198f, 0.01582928f,
  0.0135232788f, 0.0188733302f, -0.0542003587f, 0.00517517934f, -0.0267458074f, -0.0274562389f, 0.0349745415f, 0.00507448195f,
  0.021862518f, 0.0176286045f, 0.0319326669f, 0.0310480706f, -0.00713033043f, 0.0353488475f, 0.0211226866f, 0.0158326533f,
  -0.0127934348f, 0.019378094f, 0.00563793397f, 0.0442287214f, -0.0195630658f, 0.0341498703f, 0.06784226f, 0.0158127677f,
  -0.00988278165f, 0.05575037f, 0.0308330916f, -0.0522556864f, 0.0254252888f, 0.0030950876f, -0.00863895193f, 0.0849189013f,
  0.0421628691f, -0.0780860484f, 0.0421114117f, -0.0120500363f, -0.0740030408f, 0.0711250976f, -0.0171575565f, 0.00726503413f,
  0.0699483827f, 0.0859082565f, -0.000911734998f, 0.00915976055f, -0.0196909681f, -0.0610407926f, 0.0910210162f, 0.0417784825f,
  0.00650476851f, 0.166642785f, 0.066786468f, 0.0623331293f, 0.191323936f, -0.00105559686f, -0.00793182105f, 0.137624502f,
  0.0103216041f, 0.0194187295f, 0.159033805f, 0.00628941506f, 0.0393529646f, 0.15801461f, 0.0104596671f, 0.105074622f,
  0.256366074f, 0.062005043f, 0.10149239f, 0.277507782f, -0.0624027289f, -0.108217493f, 0.219201386f, -0.309578389f,
  -0.356969178f, 0.0936451703f, -0.62617296f, -0.63827014f, -0.0461937562f, -0.842057049f, -0.859967828f, -0.053341493f,
  -0.854401827f, -0.807323098f, 0.020607613f, -0.803347409f, -0.782079577f, -0.109707922f, 0.00896391086f, 0.00246376544f,
  -0.0892976522f, 0.0191724412f, 0.0180318914f, -0.000351404306f, 0.065480791f, 0.122304328f, 0.00894367043f, 0.0983022749f,
  0.124328032f, 0.0107448092f, 0.102637738f, 0.139933243f, -0.0318093896f, 0.0740885139f, 0.136810631f, -0.0415332317f,
  0.0349198654f, 0.128240585f, -0.0521422178f, 0.0117039643f, 0.130780041f, -0.0434265584f, 0.0116657279f, 0.0972599536f,
  -0.0519922227f, -0.00432384107f, 0.0805805773f, -0.0441270806f, 0.0100698266f, 0.0696837604f, -0.0401905812f, 0.0188929662f,
  0.0519439578f, -0.0333178565f, 0.0202284977f, 0.0426021963f, -0.0510784909f, 0.0332864895f, 0.0560081452f, -0.0453273505f,
  0.018797148f, 0.0464925244f, -0.0254992954f, 0.0121330684f, 0.0143947499f, -0.0196813904f, 0.00911943894f, 0.0439459793f,
  -0.00624500308f, -0.0134192314f, 0.0444207266f, -0.0181089714f, 0.0149041004f, 0.0529890433f, -0.0408181548f, -0.00510742888f,
  0.034720242f, -0.00935162604f, -0.00133032072f, 0.038369257f, 0.0191388577f, 0.0136835296f, 0.0312442034f, -0.00108359638f,
  0.0200112555f, 0.0479676872f, -0.0299778432f, 0.0221589394f, 0.0395134874f, -0.0651505813f, -0.0135009922f, 0.00743422844f,
  -0.0849102959f, -0.0117363445f, -0.00253658858f, -0.0500973091f, -0.0210179817f, 0.0192723498f, -0.0148927625f, -0.00210081507f,
  0.0113140419f, -0.00860044081f, 0.01664472f, 0.0285206772f, -0.00200626487f, -0.0176472794f, -0.0109569067f, 0.00250192359f,
  0.0121920072f, 0.0269777253f, -0.0391631313f, 0.0233607925f, 0.0337380096f, -0.0954751521f, -0.00243625371f, -0.00970141031f,
  -0.0649228916f, -0.0284197815f, -0.0119628282f, -0.0787960663f, -0.0346121304f, 0.000501313247f, -0.0629636943f, 0.0197698791f,
  0.04706873f, -0.0820308551f, 0.00198882027f, 0.0503800325f, -0.0452468209f, 0.00699878717f, 0.0402458012f, -0.0368939415f,
  -0.0138452463f, 0.0247711129f, -0.0515691638f, -0.0102074705f, 0.00174154318f, -0.0396804214f, 0.0103976689f, 0.0265466571f,
  -0.0358820632f, -0.00858276524f, 0.0346452519f, -0.0152569786f, 0.000891027041f, 0.0522033051f, -0.036003083f, -0.0271539018f,
  0.0106691765f, -0.0723682642f, -0.00287797209f, 0.0442268141f, -0.0480465442f, 0.017290324f, 0.061860688f, -0.0330462195f,
  0.024201585f, 0.0297308788f, -0.0170198232f, 0.0500688702f, 0.07562574f, -0.0506188795f, 0.000683808699f, 0.0456879362f,
  -0.0481288955f, -0.00471095322f, 0.0106119802f, -0.0207782388f, 0.00221986789f, 0.0101694157f, -0.0268457606f, 0.0132052265f,
  -0.00922062155f, -0.0379289985f, -0.000826361589f, 0.0240484886f, -0.0244433526f, 0.017473368f, 0.041924458f, -0.0615650378f,
  0.000970893539f, 0.0275836345f, -0.053077437f, -0.00104169222f, 0.0260312725f, -0.00511344895f, 0.0329972841f, 0.0432382748f,
  -0.038181778f, 0.0169826411f, 0.0303058755f, -0.0690550804f, -0.0115033826f, -0.0114372149f, -0.0159796067f, 0.0144851711f,
  0.0106677506f, 0.0152215119f, 0.0715862289f, 0.0671778545f, 0.0143725369f, 0.0421381146f, 0.0345249027f, -0.00910026021f,
  0.0318244211f, 0.00892922468f, -0.00675316155f, 0.0183822121f, -0.00076905149f, -0.0753635466f, 0.0222060829f, -0.0141159715f,
  -0.0534012839f, 0.0013566073f, -0.00487671699f, -0.0208594166f, 0.00255770888f, -0.0168790706f, 0.0368669927f, 0.0473243259f,
  0.000582357869f, 0.0224899165f, 0.0128568262f, -0.00827494264f, -0.0641632602f, -0.00474841893f, -0.0203835629f, -0.0669979379f,
  0.00134235993f, 0.0106727043f, -0.0289052911f, 0.0367595963f, 0.0170062967f, -0.00268899836f, 0.0172062851f, 0.0037236549f,
  -0.0060663335f, 0.00955034699f, -0.0050553917f, 0.0229508653f, 0.0320189781f, 0.0170088243f, 0.0142175974f, 0.00162449758f,
  0.0245848224f, -0.00654245773f, 0.00973886438f, -0.000375413336f, -0.0516349375f, -0.00966662262f, -0.00991966296f, -0.0287431423f,
  -0.0135761201f, -0.031151833f, 0.0218517482f, -0.00387454592f, -0.0162298977f, 0.0205424726f, 0.00410501799f, -0.00347890193f,
  -0.00482181227f, 0.0163428355f, -0.00224035885f, 0.0132082105f, 0.0307705365f, 0.00429611886f, 0.0382873751f, 0.00401597423f,
  -0.0041577043f, 0.00732351281f, 0.0200900063f, -0.0166340359f, 0.0172639415f, -0.0114801023f, -0.035493277f, 0.01980526f,
  -0.0236917753f, -0.0178567469f, 0.0179276187f, -0.021979481f, -0.00284105539f, -0.00615985785f, -0.0107894149f, -0.0115673002f,
  0.00509735988f, -0.00485420274f, -0.0190862492f, 0.025710728f, -0.0116793551f, -0.0295208395f, 0.0222981106f, 0.00651536742f,
  -0.0456260443f, 0.00246215425f, 0.0219695158f, -0.0193459447f, -0.0333575308f, -0.0109608416f, -0.0124837356f, -0.0207654554f,
  0.00705557503f, 0.00137785543f, -0.0379552543f, 0.0182545334f, -0.0059777759f, -0.0458085686f, 0.0255700275f, 0.00548237935f,
  -0.0323561206f, 0.0152053973f, -0.00338195753f, 0.00587825384f, -0.00726393331f, 0.000170296989f, 0.0190672111f, -0.000506461598f,
  -0.0224212818f, 0.0142528247f, 0.00992300641f, -0.0281201545f, 0.00851377193f, -0.0356169268f, -0.0303334557f, 0.000296682585f,
  -0.00423337193f, -0.00192974694f, 0.0567901582f, 0.0510035902f, 0.00282247923f, 0.0394605473f, -0.00311073381f, -0.00745897461f,
  0.0261074062f, 0.000146459788f, 0.00188145926f, 0.0356441997f, -0.00135588227f, 0.0165235009f, 0.0558860078f, -0.0114277769f,
  0.0135056367f, 0.0399454646f, 0.0240247529f, 0.00725475186f, 0.000484209508f, 0.0183306113f, 0.000185829122f, 0.0444347449f,
  0.0076016197f, 0.00102924695f, 0.0673414543f, 0.0143792303f, 0.0327012613f, 0.0711425394f, 0.0175547935f, 0.0291120391f,
  0.0672765821f, 0.00568198785f, 0.0311922561f, 0.0217942465f, -0.00397514179f, 0.0153667992f, 0.0449432358f, -0.00836249348f,
  0.0324512944f, 0.0232587624f, -0.0219483264f, 0.0444073752f, -0.00293897418f, -0.0446456335f, -0.00424019201f, -0.00850377046f,
  -0.0607721582f, 0.000650933012f, -0.0115433801f, -0.0872413889f, -0.00382426661f, -0.0447736979f, -0.162121311f, -0.0450148098f,
  -0.0260175616f, -0.191946104f, -0.083116129f, 0.0106818583f, -0.128193825f, -0.0067174607f, 0.0286789555f, -0.10595423f,
  0.0185176507f, 0.0134533858f, -0.0519758053f, 0.0433720984f, -0.00586735038f, -0.0151582072f, 0.114803672f, -0.00601590052f,
  -0.0314709991f, 0.10430605f, -0.0463540256f, -0.017810395f, 0.0765643939f, -0.0805156603f, -0.00815164857f, 0.0877535045f,
  -0.226366565f, 0.137690112f, 0.00669363001f, -0.901300311f, -0.0295435302f, 0.552651167f, -0.750426233f, 0.0111185554f,
  0.588893414f, -0.592480302f, 0.133088022f, 0.408277601f, 0.158596516f, -0.0460723042f, -0.0974479318f, 0.0363579169f,
  0.00536698103f, -0.0472005308f, 0.0470656715f, 0.00251140259f, -0.0490574948f, 0.0456556976f, -0.0132963303f, -0.0189741179f,
  0.00171673892f, 0.0186310019f, -0.0278970432f, 0.0374881886f, -0.0199732557f, -0.00537875481f, 0.0303128958f, -0.00333386706f,
  -0.0167073086f, -0.000353232957f, 0.0382778533f, -0.0301466137f, -0.00795400329f, 0.0441265255f, -0.040283069f, 0.00272013014f,
  0.0129973739f, -0.00680865254f, 0.010252133f, 0.00447336305f, 0.0115575623f, -0.0454090014f, 0.00486881752f, 0.00739338156f,
  -0.0137566635f, 0.0332411528f, -0.0194652006f, -0.0318577774f, 0.0292540789f, -0.00426531676f, -0.0590996444f, 0.0277834013f,
  -0.0473773815f, -0.0302616842f, 0.0609301925f, -0.0259107724f, 0.00173527387f, -0.00681404676f, 0.00993875414f, 0.00911155902f,
  -0.000296667218f, 0.00608770689f, -0.00714328606f, -0.0114345197f, -0.0144181838f, -0.0176581386f, 0.0180153847f, 0.00887515955f,
  -0.0049240822f, -0.00425090268f, -2.377294e-05f, 0.0022498155f, 0.0212548897f, 0.0239215493f, -0.0226595756f, 0.0485300869f,
  -0.0377552919f, -0.0262690447f, 0.0570369624f, -0.0515279733f, -0.0260472633f, 0.046368584f, -0.00651980005f, -0.0467572138f,
  0.0714010224f, -0.0509235337f, -0.0170241222f, -0.000150057487f, -0.00400177017f, 0.0580979735f, -0.0303238761f, -0.00398535468f,
  -0.00245625316f, -0.0360547677f, -0.00605178578f, 0.0443412848f, -0.0117709469f, -0.00184825948f, -0.0146712493f, -0.0464171767f,
  -0.0257210266f, 0.00545940641f, 0.0225244034f, -0.0294551104f, -0.0425401069f, 0.0412467383f, -0.0547641143f, -0.0510119051f,
  0.0600301027f, 0.0265539847f, 0.00720919203f, -0.0245798938f, 0.0139186131f, 0.104440443f, -0.0626445934f, 0.0325356983f,
  0.102605619f, -0.0772544518f, -0.0253507793f, 0.0166884139f, -0.0278595332f, -0.0703529716f, -0.0189584401f, -0.0222249087f,
  -0.132005051f, 0.0308082346f, 0.0119426008f, -0.0172043461f, 0.0611049086f, 0.0300099887f, 0.0953013301f, -0.011528952f,
  -0.00524995988f, 0.0234992057f, 0.00815630704f, 0.0129442494f, 0.000442593591f, -0.000140701886f, -0.0047721453f, -0.0398741588f,
  -0.0233754963f, 0.0251547284f, -0.0355769284f, -0.020919051f, 0.0396568626f, 0.0118984021f, 0.0232964791f, 0.0597678125f,
  -0.0222926363f, -0.0658132061f, 0.00784978736f, 0.00118404045f, -0.111550279f, 0.0382136218f, -0.0288953204f, 0.020483505f,
  0.0526517741f, 0.0149086863f, 0.0182024371f, 0.0441078208f, 0.0253738239f, -0.0149908857f, 0.0796234831f, -0.0238450374f,
  -0.0309470929f, -0.00291333674f, -0.0314777046f, -0.00835191086f, -0.0214530937f, -0.0222540125f, -0.00445078965f, -0.00119635556f,
  -0.0508280918f, 0.000280766282f, -0.0172097832f, -0.0697866529f, 0.0398983508f, -0.0146043627f, -0.00830540434f, -0.0638074577f,
  0.00624509947f, 0.00772963185f, -0.0224607605f, 0.0275788847f, -0.034565568f, 0.0885917991f, -0.0193678141f, -0.0234674513f,
  0.0376928896f, -0.0218636058f, -0.0170389563f, 0.0887460187f, -0.0675285235f, 0.0522906631f, 0.0139938118f, -0.0714063644f,
  0.0360648483f, -0.0236422904f, -0.0284339972f, 0.0445515737f, 0.00902178511f, -0.0371954329f, 0.0124436421f, -0.0587533489f,
  -0.0746928081f, -0.00933043472f, -0.0543454029f, -0.0466508493f, 0.00700129662f, 0.0306992345f, -0.0500696898f, 0.0333252847f,
